2881 100
</s> -0.19679 0.92702 -0.23399 0.28106 -0.20867 0.0080866 0.28919 -0.14112 0.26059 0.22435 0.29912 0.15888 0.52219 -0.099464 -0.29033 -0.44788 -0.065439 0.29396 0.13904 -0.084043 -0.22784 0.19636 0.26498 0.13462 0.11993 0.087655 -0.034703 -0.08821 0.10245 0.083109 -0.62411 0.075719 -0.27576 -0.40159 0.068255 -0.29409 0.059204 -0.19208 -0.10393 -0.044525 0.28237 -0.040733 -0.019486 0.064711 -0.46609 0.21859 0.066695 -0.059277 -0.26756 -0.027526 -0.22015 0.5335 -0.17606 0.11166 -0.090383 -0.47246 0.26801 -0.036318 0.043743 -0.21418 -0.31656 -0.10986 -0.10836 0.010106 0.32343 -0.12752 -0.44776 0.11775 0.44262 0.37138 -0.14001 -0.10441 -0.2218 -0.11531 0.39549 -0.20166 -0.095519 -0.14652 -0.26006 -0.07879 -0.15034 0.37667 0.44717 -0.30996 -0.12669 -0.53235 0.09496 -0.46841 0.18402 -0.61339 -0.21774 0.31572 0.10553 -0.051758 -0.080944 0.042378 0.31628 0.37177 -0.076444 -0.043245 
tv 0.56625 0.26728 0.85566 -0.60273 -0.027706 -0.0081832 -0.20392 0.49932 -0.78319 -0.16382 0.36551 -0.055606 -0.33942 -0.48985 -0.26721 -0.25102 -0.08856 0.32284 -0.2068 0.1601 -0.44061 0.2998 0.27267 0.35014 -0.24413 -0.28748 -0.89161 -0.19901 0.26838 -0.73382 -0.62723 -0.32304 0.28507 -0.18172 0.29271 0.011521 -0.4706 -0.098887 -0.41591 0.26728 -0.34247 0.30937 -0.31561 -0.096615 0.59976 -0.14057 0.20893 -0.38017 -0.2457 -0.26734 0.044235 -0.18898 -0.026915 0.41057 -0.36981 -0.25969 -0.56661 0.34102 0.72837 0.061091 0.25457 -0.058939 -0.16044 0.27156 0.24896 -0.18317 -0.63781 -0.2005 -0.52258 -0.047445 0.08765 0.1455 0.21616 -0.55116 0.29112 -0.22877 -0.13041 -0.16042 0.0067851 0.16616 0.17754 -0.33265 0.043142 0.30024 0.40584 0.2599 -0.27536 -0.45273 0.054665 0.40465 -0.13736 0.41956 -0.01739 -0.081307 0.36335 0.24434 -0.50294 0.19963 -0.37158 -0.48161 
laptop 0.24389 -0.76195 -0.16757 -0.052113 0.31265 -0.4375 -0.10423 -0.51858 0.44614 0.58765 -0.30345 -0.13719 -0.3642 -0.54447 -0.25912 -0.092767 0.25573 -0.54304 -0.015874 0.29712 0.41917 -0.44762 -0.38084 -0.036557 0.33229 -0.3314 0.90449 -0.266 -0.38624 0.37145 0.41899 0.48574 -0.89881 0.057047 -0.54159 -0.45206 -0.057848 0.51968 0.59606 0.34836 -0.48736 0.39137 0.28226 -0.19293 0.024283 0.35832 0.36238 0.84949 0.27569 0.50803 -0.52882 0.18501 0.28132 -0.51411 -0.18527 0.64112 -0.028159 -0.5615 -0.50976 -0.31271 0.51654 0.8469 0.60143 0.16269 0.011983 0.35313 -0.089865 -0.41919 0.077126 -0.42287 0.56134 0.14649 0.1657 -0.56368 -0.50146 0.56357 0.61876 -0.22421 0.30919 -0.42519 0.34425 0.07027 -0.47013 -0.50888 0.061467 -0.90728 0.15038 0.5297 0.47593 -0.4098 -0.64981 -0.059428 0.51633 -0.353 -0.030458 -0.12995 0.078026 -0.022079 0.50143 0.41012 
iphon -0.00094756 0.48723 -0.048059 -0.38632 0.2027 0.32731 -0.29752 -0.048466 0.21908 0.47637 0.1691 0.69375 -0.61237 0.52138 0.51731 -0.44346 -0.47244 -0.37224 0.35207 -0.15579 0.37098 0.72686 0.11595 0.11071 -0.55782 0.57123 0.27979 -0.39378 -0.41376 -0.14434 0.44485 0.24203 -0.20618 0.21972 -0.085772 0.11874 0.28342 0.002254 0.032223 0.29421 -0.06858 -0.15331 -0.12532 -0.3121 0.0058607 -0.026449 0.63389 0.061811 0.21772 0.33646 -0.36023 -0.24735 -0.42193 -0.13704 -0.25333 0.14217 0.062726 -0.099023 0.44286 0.020595 -0.81765 -0.20353 0.15321 -0.39261 -0.36106 0.1194 0.20354 -0.31439 -0.13487 -0.24331 0.20106 0.054331 0.3042 0.39115 0.18956 0.18713 0.12036 0.21828 0.43504 -0.20718 -0.080305 0.19982 0.43261 0.14715 0.70908 -0.00461 -0.24676 0.36115 -0.15706 -0.22789 -0.076277 -0.42717 -0.031532 0.41821 -0.47049 -0.46785 0.051616 0.40945 0.16941 -0.01391 
hp 0.0015767 -0.17123 -0.49759 -0.14634 0.69968 -0.061385 -0.16688 -0.49166 0.29068 0.43768 -0.10593 -0.050509 0.084298 0.036628 0.20719 -0.065095 0.067266 -0.20646 0.1649 0.23674 0.44037 -0.27402 -0.029112 -0.25321 0.14132 -0.34599 0.7491 0.13534 -0.098041 0.46108 0.10634 0.20238 -0.42219 0.1757 -0.46577 0.012672 -0.067119 0.14685 0.2 0.044145 -0.18266 0.10673 0.35719 -0.14874 0.047866 -0.11714 0.045161 0.54873 -0.034486 0.22525 -0.37758 0.18089 0.20053 -0.26247 0.072143 0.43784 0.027692 -0.2271 -0.36606 -0.27428 0.38526 0.41509 0.38978 0.27477 0.11888 0.39397 -0.1799 -0.35801 0.072901 0.13007 -0.062216 0.27415 -0.057951 -0.30818 -0.37311 -0.041101 0.059478 0.085894 0.032354 -0.078352 -0.063558 0.17393 0.0062795 -0.24876 -0.040911 -0.41855 0.28108 0.33262 -0.037072 0.082104 0.11023 0.045977 0.31007 -0.36074 -0.021132 -0.29774 0.14849 -0.50118 0.10397 -0.089967 
samsung 0.26362 0.51023 -0.063263 -0.60161 0.70238 0.21323 -0.44691 -0.080137 -0.034728 0.61106 -0.015629 0.31486 -0.25976 0.33896 0.37532 -0.43166 -0.23132 -0.18594 0.27533 -0.024283 0.1972 0.44786 0.29525 -0.054163 -0.38884 -0.06629 0.32183 -0.34932 -0.17936 -0.17156 0.0014978 -0.021315 -0.19992 -0.071079 -0.35566 0.06587 -0.14882 -0.093342 -0.18583 0.28834 -0.25138 -0.052801 -0.053784 -0.20363 0.30129 -0.25657 0.14707 0.1042 -0.26718 0.21109 -0.48255 -0.13524 -0.31086 0.026316 -0.305 0.34509 -0.18783 -0.0054465 0.34497 -0.044218 -0.07345 0.16224 0.45211 0.42548 0.11949 0.2988 -0.31856 -0.51242 -0.29698 0.0029408 -0.011342 0.35117 0.33298 -0.22497 -0.12097 -0.19519 0.15505 0.25487 0.3672 0.039547 -0.08254 -0.048824 0.22446 0.05788 0.62508 -0.033669 -0.049568 0.12402 -0.34391 0.36307 0.11687 0.1411 0.27346 -0.063153 0.086103 -0.37075 -0.041607 -0.030668 -0.24405 -0.27251 
ipod 0.38479 -0.044787 0.55553 -0.63302 -0.018486 0.11852 0.033868 0.22439 -0.12165 -0.057015 0.53833 0.71126 -0.42529 -0.36335 -0.093726 0.52246 -0.085233 -0.1183 0.035048 0.10095 0.55893 0.68473 0.29498 -0.12916 -0.10997 0.35389 -0.48215 0.16679 0.37552 0.30406 -0.82174 -0.28971 -0.34168 0.64544 0.5904 0.27734 0.3638 0.153 -0.028177 0.46512 -0.32166 0.26235 0.45922 -0.63357 0.49834 -0.066853 1.0356 -0.54069 -0.095768 -0.19509 0.45005 0.17212 -0.38834 0.072214 0.10215 -0.38723 0.052609 0.17088 0.48157 -0.12968 -0.19354 0.10522 -0.59563 -0.58815 -0.24134 0.29619 -0.66148 -0.0045806 -0.050336 0.38162 -0.59567 0.13905 -0.50969 0.039631 0.39469 -0.23655 -0.69789 -0.28319 -0.39496 0.028898 -0.037419 0.286 0.14264 -0.31392 0.96548 -0.0075797 0.45936 0.33393 0.26208 0.061662 -0.15017 -0.46465 -0.48767 -0.016853 -0.38848 -0.6024 -0.17803 -0.44016 0.54247 -0.79159 
ipad -0.17605 -0.09827 -0.85355 -0.67555 0.94447 -0.15137 -0.58461 -0.20236 0.055477 -0.25931 0.14876 -0.18398 0.13278 0.95949 0.50331 -0.054313 -0.14344 0.11073 0.38587 0.22125 0.61223 -0.3085 -0.26584 -0.063257 -0.29543 -0.55157 0.21856 0.41679 -0.078811 0.45409 -0.19797 0.3717 0.42222 0.6582 -0.57658 0.17685 0.44966 -0.56652 0.33867 0.34629 0.34603 0.16799 0.27813 0.030585 0.35651 0.0020557 0.33018 0.49688 0.25783 0.26449 -0.1542 0.077434 0.19794 0.1714 0.15359 0.15615 0.030967 -0.12361 0.023006 -0.6349 0.14554 -0.15798 0.66565 -0.082321 -0.18313 -0.061287 0.048276 -0.49738 -0.25121 0.071116 -0.75825 0.65812 -0.63008 0.06768 0.30909 0.059175 -0.84629 0.41304 -0.26119 0.13166 -0.53799 -0.24745 0.55309 0.062319 0.42009 0.46682 0.36869 0.30113 -0.31492 0.11737 0.96004 -0.36817 -0.62387 -0.59175 -0.40015 -0.78394 0.035943 -1.1623 0.48296 -0.51001 
case -0.22399 0.12008 -0.076337 -0.32341 0.063213 0.035412 -0.18577 -0.02674 0.13702 -0.023699 -0.024642 0.43673 -0.45871 0.76629 0.42956 -0.22867 -0.37834 -0.097699 0.6202 -0.15934 0.30353 0.49913 0.12413 0.013376 -0.30299 0.66782 0.48472 -0.029346 -0.11708 0.098081 0.44127 0.47023 0.048376 0.32326 -0.075855 0.20765 0.66542 0.03197 0.30313 0.41548 0.060513 -0.44109 0.13154 -0.16245 0.12766 -0.14979 0.54361 0.15349 0.2488 0.53239 -0.20374 -0.1613 -0.28101 0.066188 -0.11107 0.46571 0.13388 -0.53585 0.028815 -0.14166 -0.82812 -0.30484 0.033345 -0.5707 -0.43163 -0.083018 0.61441 -0.2784 0.05063 -0.2966 0.11432 -0.21271 -0.035395 0.65617 0.28509 0.51591 -0.4173 0.32258 0.38297 -0.019118 -0.17519 0.050605 0.0926 -0.081547 0.72866 0.18756 -0.10371 0.48468 -0.0080608 -0.36852 0.051027 -0.61416 -0.5041 0.37012 -0.68712 -0.43002 0.1243 -0.19429 0.80212 -0.0011694 
the -0.47527 0.22336 -0.11858 0.27915 -0.21876 0.043435 0.41158 0.051864 0.32839 -0.055331 -0.038446 0.064321 0.4251 0.1067 -0.32079 0.076246 -0.0027193 0.26276 -0.030149 -0.31316 -0.21287 0.13791 0.12359 -0.134 0.30042 -0.036969 -0.15595 -0.059526 0.0067245 0.29722 -0.14878 -0.11294 -0.12836 -0.22166 -0.020018 -0.0061251 0.22166 -0.20617 -0.066882 -0.3116 0.44314 0.17432 0.056964 0.16821 -0.34958 0.16037 -0.1313 -0.27313 -0.16565 0.00019935 -0.056249 0.32377 -0.22329 0.16975 0.11166 -0.44555 0.18587 0.10694 0.068563 0.18241 -0.38479 -0.035473 -0.083088 -0.1644 -0.23551 -0.21865 -0.053326 0.49619 0.42091 0.18418 -0.25878 -0.22005 -0.25718 0.27815 0.14209 0.0035065 0.2306 0.21089 -0.13486 -0.19781 -0.18938 0.19594 0.30066 -0.31347 -0.44635 -0.19357 -0.02024 -0.087204 0.020797 -0.37225 0.15022 0.025366 0.15261 -0.14233 -0.11898 -0.088501 0.22815 0.46765 -0.10892 0.033432 
soni 0.26473 0.20896 -0.067845 0.020711 0.27056 -0.065114 -0.12969 0.0024258 0.035748 0.12161 0.021682 0.13145 0.08158 -0.088656 -0.29242 -0.042755 0.19125 -0.17716 -0.094686 -0.028506 0.020348 0.24371 0.1193 -0.030985 -0.2388 -0.29007 -0.06674 -0.30909 -0.10417 0.1084 -0.33983 -0.30593 -0.31433 -0.24951 -0.059789 -0.2425 -0.053178 -0.04062 -0.088218 0.050822 -0.2105 0.22487 -0.00053193 -0.023226 0.091528 0.16805 0.21647 -0.048858 -0.28205 0.094747 -0.36828 0.35085 -0.21177 0.093284 -0.14574 -0.194 -0.0018145 0.1131 0.14252 -0.11566 0.058465 0.36885 0.35842 0.40393 0.15207 0.17322 -0.52121 0.0057613 -0.07646 0.21829 -0.16588 0.21965 0.027438 -0.37217 -0.074465 -0.26048 0.064873 0.051681 0.004108 0.068562 0.090549 0.11625 0.09369 -0.2522 0.41296 -0.24104 0.14771 0.008304 0.15985 -0.091485 0.016025 0.22743 0.30653 -0.1103 0.20022 -0.24777 0.064958 0.073325 -0.30015 -0.18167 
camera 0.17492 0.10167 -0.40731 0.84049 -0.41346 -0.25181 0.2525 -0.10622 -0.32253 -0.62051 0.066177 0.088789 0.20564 -0.10123 -0.27358 -0.25949 0.12622 -0.3019 0.026081 0.097153 -0.042561 -0.091031 -0.075469 0.40902 -0.2353 -0.074469 -0.38119 -0.21268 -0.42441 -0.11097 -0.12678 -0.0097801 -0.17205 -0.45142 0.020281 -0.34587 0.0022409 -0.094205 0.085776 0.31559 -0.20144 0.15038 -0.054253 0.34936 -0.19985 0.50953 0.078687 0.065272 -0.35265 0.46235 -0.17255 0.30986 0.21037 0.093562 0.057437 -0.37634 0.25604 -0.21092 -0.025593 -0.55891 -0.0072986 0.21178 0.41056 0.27 0.39229 -0.2511 -0.29958 0.24646 0.086063 -0.052899 -0.19856 -0.26819 0.33034 -0.04577 0.079072 0.23464 -0.43194 -0.21657 0.042231 -0.14387 0.19201 0.011701 -0.078728 -0.18141 0.29142 -0.18764 0.14429 -0.3248 0.50897 -1.0026 -0.25398 0.13781 -0.23849 0.55179 0.14182 -0.0076648 -0.11394 -0.05087 -0.33131 -0.15555 
tablet 0.11871 -0.068179 -0.49828 -0.43192 0.81399 -0.028886 -0.48312 -0.31009 0.013441 0.20252 -0.055461 -0.075706 0.024813 0.42819 0.42982 -0.022356 0.013017 -0.11367 0.20131 0.21693 0.5227 -0.20918 -0.10401 -0.17119 -0.13989 -0.35102 0.51742 0.26499 0.036101 0.26414 -0.032171 0.067162 0.092811 0.37603 -0.37971 0.13505 0.001074 -0.04172 0.12353 0.1596 -0.082449 -0.071234 0.27072 -0.14404 0.29723 -0.30003 0.0064006 0.38869 -0.0028976 0.055615 -0.090764 -0.068515 0.14594 -0.16379 0.071587 0.45277 -0.056551 -0.081881 -0.18109 -0.29414 0.45279 0.22342 0.40729 0.3651 0.15799 0.39651 -0.088333 -0.53196 -0.19897 0.14492 -0.26171 0.5167 -0.14842 -0.20242 -0.21017 -0.25973 -0.36508 0.15593 0.022288 0.18837 -0.21959 -0.11467 0.057561 0.0080946 0.32166 0.13385 0.31138 0.26585 -0.32193 0.49666 0.49185 -0.07634 -0.055616 -0.41586 0.021745 -0.37345 0.020723 -0.8552 0.089229 -0.25258 
dvd 0.12064 -0.21376 0.41422 0.2556 -0.53218 0.10783 0.27639 0.10341 -0.38666 -0.33013 0.14982 -0.18337 -0.055151 -0.4765 0.16819 0.24731 -0.023282 0.12502 -0.043689 0.12234 -0.18231 -0.22589 0.071478 0.10307 0.13337 0.38913 -0.23793 0.46246 0.2765 -0.28469 0.068115 0.21661 0.28976 0.051764 0.52812 0.18689 -0.26969 0.089769 -0.095035 -0.13693 -0.031185 -0.23074 -0.074525 0.030126 0.092051 -0.26846 -0.15299 -0.052871 0.20707 -0.2526 0.42183 -0.23386 0.37631 -0.037077 0.072163 -0.043866 -0.071474 -0.019557 -0.15109 0.080884 0.11733 -0.33965 -0.61676 -0.25144 0.088304 -0.14721 0.12066 0.11117 -0.08708 0.062959 0.23223 -0.25201 0.114 0.061834 -0.062443 0.015676 -0.15887 -0.25451 -0.29093 0.06698 0.21197 -0.021785 -0.40035 0.40896 -0.39838 0.35457 -0.098381 -0.24905 0.092452 0.15632 -0.38031 0.10698 -0.25695 0.25972 0.069629 0.50638 -0.27873 -0.2101 0.16628 -0.033448 
comput 0.023954 -0.43535 -0.13529 -0.015056 0.21785 -0.21353 0.093524 -0.32426 0.23447 0.36689 -0.21687 -0.15842 -0.012487 -0.34108 -0.18816 0.029762 0.18967 -0.12309 -0.08162 0.15367 0.16806 -0.28362 -0.19739 -0.1886 0.42545 -0.28901 0.52459 -0.0027883 -0.045927 0.37875 0.097621 0.16834 -0.48183 -0.014898 -0.23601 -0.18107 -0.057547 0.26177 0.23344 0.047809 -0.12813 0.22723 0.23792 -0.092313 -0.003513 0.072209 -0.056677 0.34998 0.027224 0.10666 -0.11607 0.13692 0.16991 -0.28857 0.016952 0.28318 -0.01468 -0.22014 -0.31525 -0.049492 0.43155 0.55197 0.20735 0.22917 0.10702 0.2589 -0.10917 -0.15132 0.09737 -0.071441 0.15451 0.067537 -0.035461 -0.32841 -0.38877 0.16267 0.31495 -0.096503 0.076575 -0.14031 0.092913 0.033247 -0.32088 -0.33987 -0.1565 -0.51772 0.21872 0.23033 0.087041 -0.034213 -0.19125 0.076106 0.31304 -0.3836 0.095242 -0.017817 0.067391 -0.097587 0.17543 0.21935 
car 0.033672 0.12384 0.2135 0.13297 -0.53332 0.074922 0.11023 0.15228 -0.19593 -0.30522 0.33917 0.087345 -0.11839 -0.26 -0.067454 0.15468 -0.059274 0.14892 -0.06937 -0.013532 -0.15297 -0.12415 0.01908 0.28548 0.072553 0.34185 -0.52736 0.16336 0.057024 -0.29593 -0.19939 0.12684 0.21457 -0.046732 0.36665 -0.02558 -0.12139 -0.013626 -0.052566 0.16496 0.0030571 -0.11465 0.01496 -0.034916 -0.12811 -0.017625 0.14116 -0.11894 0.063326 -0.0034021 0.26617 -0.0055106 0.09867 0.07118 -0.0029236 -0.24304 0.013394 -0.015687 0.028349 -0.042368 -0.031182 -0.35409 -0.52746 -0.30408 -0.012238 -0.25025 0.11067 0.21387 0.020815 0.075133 0.15208 -0.11258 -0.092289 0.087109 0.3645 0.021646 -0.19525 -0.40563 -0.2349 -0.0059839 0.10724 0.10594 -0.0060434 0.13553 -0.10945 -0.022551 -0.077023 -0.35424 0.21954 -0.34844 -0.29855 -0.015956 -0.19221 0.25115 -0.14668 0.3302 -0.16488 0.12043 0.19615 -0.06697 
phone 0.084341 0.37731 -0.21593 -0.040692 0.22938 0.2496 -0.31182 -0.18713 0.30998 0.39938 0.051331 0.4576 -0.33725 0.44497 0.32587 -0.25974 -0.13184 -0.38646 0.085968 -0.19663 0.32357 0.51599 -0.037859 0.025348 -0.4877 0.40675 0.3576 -0.31803 -0.2997 -0.019882 0.41645 -0.037987 -0.12346 0.13125 -0.042061 -0.088042 0.16289 0.1064 0.088683 0.034997 -0.11702 -0.21217 -0.10032 -0.10258 -0.11911 0.0801 0.38536 0.082102 0.1811 0.08408 -0.2531 -0.10921 -0.3565 -0.2565 -0.13086 0.13793 0.21587 -0.011624 0.12212 0.034262 -0.50682 -0.06133 0.19163 -0.06264 -0.097332 0.27599 0.2045 -0.21463 -0.057069 -0.045678 0.11157 0.16722 0.26096 0.23784 0.0015799 -0.14361 0.067941 0.092191 0.37842 0.033856 -0.040954 0.1624 0.23523 0.090596 0.53772 -0.0030978 -0.10633 0.26732 -0.12659 -0.025832 0.015218 -0.27629 0.12683 0.32907 -0.20895 -0.34298 0.12814 0.29029 -0.0033564 0.16397 
beat 0.033203 -0.018799 -0.39074 0.38235 0.17021 -0.37236 -0.4352 0.021846 0.65208 -0.058813 -0.33953 -0.0061863 0.18117 0.62589 -0.85978 0.39137 0.77052 -0.24806 -0.59381 -0.44921 0.13108 0.31124 -0.69638 -0.17405 -0.39911 -0.38469 0.14893 -0.50798 -0.07817 0.61208 -0.17993 -0.74054 -0.022151 -0.12636 0.03193 -0.612 0.53001 0.080411 0.32947 -0.30214 0.24026 0.11591 -0.040171 0.25867 -0.23307 0.51926 0.33576 -0.15951 0.070645 -0.14832 -0.23736 0.62585 -0.67668 -0.04741 0.0085226 -0.30147 0.29436 0.28322 -0.1815 0.082877 -0.20699 0.51492 0.56908 0.4395 -0.047403 0.27005 0.071804 0.22576 0.091318 0.19337 -0.26842 0.52865 -0.50214 -0.043494 -0.050116 -0.55355 0.084753 0.052535 0.086461 0.39753 0.014177 0.061983 0.084717 -0.53791 0.69973 -0.10538 0.28795 0.39172 0.14333 -0.015296 0.60104 -0.29475 0.42516 -0.37534 0.067393 -0.36744 0.471 0.41479 -0.076711 0.5032 
lcd 0.12883 0.4649 0.093414 -0.4151 0.37008 0.026084 -0.23661 0.25107 -0.097787 0.25604 -0.035043 0.0049262 0.05218 0.19014 -0.1087 -0.27785 -0.035109 0.14506 -0.0065618 -0.1192 -0.25813 0.25726 0.21764 0.03009 -0.2527 -0.40329 -0.19098 -0.41499 -0.052855 -0.22986 -0.31294 -0.23294 0.016906 -0.40701 -0.27109 -0.091132 -0.17521 -0.29333 -0.29083 0.072695 0.034645 0.2056 -0.19342 0.029671 0.21925 -0.071544 -0.052222 -0.10479 -0.33062 0.054386 -0.4034 0.11151 -0.3198 0.30509 -0.31774 -0.11222 -0.28837 0.23207 0.45005 0.09507 0.020703 0.090662 0.4003 0.47197 0.089913 -0.037006 -0.41922 -0.1263 -0.22665 0.032251 -0.095786 0.26411 0.12457 -0.33419 0.046477 -0.20238 0.33699 0.22727 0.12116 0.047948 -0.031574 -0.14909 0.27669 0.02371 0.28764 0.049835 -0.13898 -0.15794 -0.15074 0.24412 0.22991 0.37504 0.3686 -0.25018 0.25822 -0.11938 -0.0051738 0.31796 -0.42441 -0.21783 
wireless -0.05692 0.0061842 -0.17522 0.26702 -0.015707 -0.0085665 -0.14028 -0.047138 0.12578 -0.187 -0.079194 -0.039128 0.045425 0.22193 -0.13916 -0.048292 0.09753 -0.1277 -0.10989 -0.040835 0.078667 0.12448 -0.18063 0.13416 -0.076972 -0.018652 -0.015366 -0.10844 0.0103 0.081488 -0.055376 -0.032051 0.059585 0.058759 0.036386 -0.049614 0.17782 0.020189 0.13799 0.09727 0.030562 -0.1359 -0.12307 0.15278 -0.17786 0.31751 0.16723 -0.066384 -0.001428 -0.092162 0.041128 0.1518 -0.18759 0.033563 0.021633 -0.06371 0.23961 -0.04287 -0.1636 -0.22002 -0.20384 0.032345 0.0032812 0.013811 -0.028187 -0.042897 0.14615 0.084386 0.092193 -0.13974 -0.088569 -0.010861 -0.12938 0.10784 0.1061 -0.049432 -0.10046 -0.075085 -0.025491 0.15535 0.032325 -0.012372 0.11891 -0.044143 0.27312 -0.023192 0.10042 -0.057853 0.10373 -0.28181 0.027092 -0.17275 -0.055458 0.10214 -0.227 0.0043583 0.10147 -0.0052099 0.16149 0.16821 
3 -0.35598 0.019043 0.0034086 0.027488 0.078992 -0.1099 0.20846 0.38602 0.67525 0.25456 -0.23368 0.2326 0.4008 0.45858 -0.37814 0.11323 0.098082 0.16793 0.0042825 -0.27346 -0.27531 -0.02312 0.19051 -0.34014 0.20027 -0.23081 -0.042831 -0.29904 -0.199 0.38183 -0.034133 -0.2194 -0.29026 -0.32269 -0.32675 -0.12254 0.37115 -0.34088 -0.011022 -0.07526 0.29293 0.093419 -0.052679 0.00082706 -0.28816 0.52921 -0.26231 -0.26415 -0.19958 0.29944 -0.0057314 0.3471 -0.62772 0.37288 -0.11775 -0.25683 0.059695 0.11815 -0.041798 0.2926 -0.49302 -0.022542 0.35523 -0.026458 -0.14399 -0.47754 0.014879 0.54973 0.33853 -0.23738 -0.53493 0.035861 -0.29114 0.35661 0.15514 0.30856 0.3219 0.25636 -0.12248 -0.13452 -0.20153 0.20906 0.39694 -0.51616 -0.11111 -0.31746 0.095067 -0.012394 -0.17229 -0.36743 0.41267 -0.063986 0.10712 0.024749 -0.14085 -0.40212 0.52877 0.22024 -0.25972 0.12519 
2 -0.54111 0.15039 -0.45025 -0.29073 0.31535 0.049094 0.1234 0.034718 0.24581 -0.13777 0.047019 -0.084588 0.42296 0.6455 0.13133 0.0043467 -0.21169 0.36959 0.29196 -0.2336 0.024431 -0.024985 0.11046 -0.1467 0.07106 -0.27709 -0.10954 0.18904 -0.11702 0.4099 -0.085184 0.28953 0.15625 0.063109 -0.39291 0.12958 0.43452 -0.63481 -0.0037313 -0.12349 0.69939 0.31303 0.10168 0.20697 -0.011754 0.090661 -0.0068951 0.067162 0.071733 0.21712 -0.24455 0.26741 -0.031081 0.3199 0.083103 -0.35457 0.079955 0.012908 0.24155 -0.082436 -0.40468 -0.23997 0.36169 -0.32217 -0.44025 -0.37926 0.043036 0.22033 0.1604 0.11701 -0.57625 0.080584 -0.4699 0.30063 0.25563 0.21315 -0.07513 0.58134 -0.23989 -0.19421 -0.44868 0.02705 0.60329 -0.15039 -0.30232 0.23008 0.014718 0.058536 -0.19385 -0.26144 0.63865 -0.10216 -0.22057 -0.40552 -0.24641 -0.51364 0.1943 -0.077403 0.15962 -0.2614 
drive -0.0071193 -0.06907 0.10318 0.35071 -0.33326 -0.056269 0.099989 0.015302 0.02489 -0.13954 0.061654 -0.046019 -0.06259 -0.20156 -0.15951 0.018681 0.0019315 0.087582 -0.044346 0.16289 -0.075759 -0.11939 -0.091158 0.14564 0.11161 0.15425 0.02324 0.13191 -0.014295 -0.15708 0.13413 0.046429 0.028832 0.027193 0.1015 -0.0014074 0.020376 0.16911 0.03202 0.057984 -0.14291 -0.096284 -0.10171 -0.014836 -0.12168 0.12468 0.11351 -0.0029063 0.080825 -0.10231 0.18187 0.023429 0.20463 0.039546 0.027761 -0.074076 0.038893 -0.04521 -0.17251 -0.079195 0.00062324 -0.10913 -0.19757 -0.056122 0.12779 -0.20882 0.1725 0.087989 0.14226 -0.083661 0.18885 -0.22889 -0.031997 0.040273 0.09507 0.12799 -0.085416 -0.28107 -0.10817 -0.097347 0.080177 0.042571 -0.094953 0.064261 -0.19683 -0.13731 -0.0041973 -0.15393 0.17204 -0.30285 -0.28954 -0.11445 -0.12665 0.15792 -0.069277 0.23019 -0.019328 0.031505 0.13662 0.05501 
headphon -0.071299 0.050601 -0.37479 0.57795 -0.088514 -0.25284 -0.31923 0.046642 0.57678 -0.27932 -0.2459 -0.0046179 0.25387 0.66899 -0.77236 0.44448 0.71672 -0.18981 -0.59761 -0.45804 0.057486 0.31515 -0.66616 -0.10779 -0.41517 -0.15905 -0.02938 -0.34254 -0.011 0.52138 -0.13756 -0.72338 0.20154 -0.054469 0.25598 -0.53896 0.5793 0.066322 0.28402 -0.39316 0.31922 -0.048896 -0.087228 0.32205 -0.32729 0.52113 0.27771 -0.2996 0.18379 -0.26779 0.0077903 0.55704 -0.61926 -0.036931 0.094756 -0.43238 0.36825 0.30654 -0.21119 0.12353 -0.33539 0.26235 0.2902 0.19969 -0.077326 0.1517 0.2314 0.35516 0.14822 0.22837 -0.28081 0.35651 -0.54032 0.18673 0.080995 -0.55512 -0.14176 -0.0070576 -0.026255 0.46365 -0.028113 0.086874 0.10218 -0.37037 0.55617 0.093093 0.24329 0.29949 0.1227 -0.058769 0.59878 -0.37379 0.1884 -0.16443 0.00042181 -0.23999 0.46763 0.39349 -0.047783 0.52773 
touchpad -0.17018 0.27431 -0.53788 -0.29964 0.7155 0.216 -0.1355 -0.35077 0.24291 0.39059 -0.043655 0.22967 0.28654 0.54458 0.45286 0.082039 -0.11178 0.062146 0.25364 -0.031239 0.52821 0.13192 0.16289 -0.40484 0.10482 -0.10437 0.50072 0.31477 0.11309 0.53891 -0.12967 -0.12181 -0.064357 0.34852 -0.28079 0.33755 0.11552 -0.097007 -0.054588 -0.095478 0.14185 -0.15346 0.39817 -0.1764 0.033663 -0.40909 -0.18787 -0.0049307 -0.27302 -0.045057 0.055801 0.020942 -0.1088 -0.13335 0.22255 0.24329 0.15885 0.043628 -0.081562 -0.039464 0.12941 0.1771 0.11978 0.26019 0.078274 0.46773 -0.13137 -0.21284 0.16221 0.42671 -0.55863 0.32457 -0.24804 0.16571 -0.2005 -0.44355 -0.31276 0.29834 -0.0023553 0.079344 -0.47158 0.13424 0.23738 -0.19903 0.065122 0.0042077 0.40572 0.23388 -0.51567 0.4644 0.62865 -0.10428 0.018349 -0.36101 -0.04685 -0.51021 0.184 -0.64376 -0.089731 -0.31335 
xbox 0.053274 -0.43469 0.098589 0.47913 -0.48978 -0.38824 -0.11978 0.074479 0.50482 -0.33447 -0.39146 0.66417 -0.24793 -0.17144 -0.33376 0.70616 0.11619 -0.46291 -0.38395 0.46087 0.10479 -0.47844 -0.21269 -0.086495 0.48783 0.23748 -0.017004 -0.2099 -0.16946 0.065663 0.37409 -0.43986 -0.39082 0.14599 -0.41323 -0.30665 0.18748 -0.25138 0.28781 -0.16721 -0.47258 0.25311 0.16429 -0.21142 -0.57994 0.42197 -0.61787 -0.5028 0.036353 0.052173 0.33745 0.072043 0.37211 0.20516 0.041157 0.35605 -0.29905 -0.037085 -0.36984 0.014194 0.14031 -0.79551 -0.20685 -0.26605 -0.49112 -0.8401 0.77784 0.66908 0.22083 -0.46084 -0.68621 -0.22275 -0.10182 0.58816 0.68433 0.6036 -0.17531 0.1253 -0.39702 -0.050998 -0.27421 -0.38087 -0.0030465 -0.18744 -0.57855 0.22569 0.0586 -0.097765 -0.18961 -0.64192 -0.55027 -0.63453 -0.48452 0.49899 -0.088435 -0.24358 -0.20195 0.073372 -0.25583 0.016948 
cabl -0.10528 -0.3565 0.19121 0.54967 -0.52525 0.063559 0.10245 0.072529 -0.15267 -0.57778 -0.0052193 -0.19187 -0.061451 -0.25598 0.089201 0.22978 0.034183 0.1606 -0.16507 0.025604 -0.1771 -0.30427 -0.16756 0.12629 0.077125 0.21129 -0.26309 0.14573 0.018005 -0.30435 0.084334 0.092437 0.29854 0.26448 0.34823 0.11877 -0.057426 0.11165 0.17916 0.04299 -0.10648 -0.24386 -0.1405 0.1985 -0.27822 0.22638 0.082311 -0.14671 0.27319 -0.10307 0.26747 -0.1116 0.11385 0.088168 0.20227 -0.20919 0.24371 -0.088281 -0.27113 -0.041298 0.050902 -0.39863 -0.47185 -0.46305 -0.10146 -0.28425 0.2335 0.2206 0.073933 -0.10069 0.10998 -0.45444 -0.028145 0.23053 0.17454 0.14051 -0.17639 -0.24546 -0.055971 0.069662 0.10385 -0.10409 -0.17051 0.30051 -0.27889 0.088488 0.042527 -0.15972 0.22345 -0.16481 -0.26835 -0.1037 -0.37317 0.40611 -0.19504 0.44367 -0.16497 -0.13076 0.25255 0.14767 
of -0.35513 0.12486 -0.060403 0.15902 -0.089482 0.031685 0.3446 0.09197 0.35418 0.07905 -0.10149 0.10446 0.35973 0.11084 -0.26001 0.12992 0.015052 0.195 -0.035686 -0.25104 -0.18229 0.093871 0.15159 -0.19928 0.27775 -0.058141 -0.10053 -0.055755 -0.019716 0.31253 -0.087543 -0.11817 -0.18029 -0.23081 -0.083825 -0.016436 0.18063 -0.22579 -0.087181 -0.30881 0.31985 0.16342 0.042354 0.10342 -0.27374 0.14381 -0.23655 -0.26268 -0.15569 0.035594 -0.039079 0.27729 -0.21218 0.1742 0.045769 -0.32736 0.08726 0.11503 0.035673 0.23397 -0.28277 -0.022334 0.0005444 -0.10071 -0.20555 -0.20281 -0.022931 0.46302 0.32974 0.1288 -0.2897 -0.13735 -0.21691 0.22465 0.073499 0.038569 0.2806 0.23273 -0.14671 -0.15358 -0.16536 0.19287 0.25234 -0.28935 -0.39299 -0.16208 0.0046978 -0.05882 -0.041515 -0.25543 0.15662 0.030215 0.15832 -0.097648 -0.021688 -0.13611 0.22687 0.36726 -0.1639 0.017132 
player 0.21118 0.0055108 0.34422 -0.17761 -0.033089 0.039223 0.068478 0.11961 -0.10119 0.040353 0.19941 0.23779 -0.12318 -0.31721 -0.11648 0.23536 0.050512 0.012463 -0.053782 0.058794 0.12436 0.20155 0.14554 -0.069128 0.070959 0.041344 -0.20059 0.076358 0.20118 0.089225 -0.37653 -0.10473 -0.17127 0.12516 0.25382 0.066997 -0.06007 0.008579 -0.067354 0.11266 -0.13895 0.15048 0.16339 -0.24103 0.2107 -0.073144 0.2995 -0.20645 -0.11456 -0.10505 0.16578 0.068058 -0.091146 0.071256 -0.04443 -0.15164 -0.092406 0.075531 0.14454 -0.0077331 0.072545 0.10862 -0.26939 -0.054537 0.020419 0.088252 -0.41693 0.029725 -0.032474 0.16762 -0.16318 0.12669 -0.13024 -0.10693 0.048951 -0.14945 -0.073118 -0.14156 -0.23494 -0.0030308 0.019126 0.086918 -0.053261 -0.085582 0.24775 -0.041609 0.19032 -0.0093275 0.075959 0.11329 -0.18355 -0.013743 -0.00059787 -0.095376 -0.037399 -0.092782 -0.15674 -0.15377 0.13357 -0.3379 
speaker 0.22135 -0.018144 -0.062359 0.15643 -0.17146 -0.16548 -0.36431 0.090299 0.030398 -0.27445 0.11121 0.14764 -0.26375 0.21942 -0.26444 0.12383 0.30422 -0.22521 -0.26728 -0.031329 0.093153 0.1633 -0.37981 0.15676 -0.40159 0.073887 -0.11126 -0.15083 0.065349 0.059498 -0.18238 -0.26179 0.23548 0.19413 0.40207 -0.24573 0.26922 0.13765 0.27351 0.091282 -0.066539 -0.12005 -0.067051 0.023506 0.011288 0.26831 0.41699 -0.13636 0.25202 -0.16476 0.22677 0.104 -0.26034 -0.029486 -0.014592 -0.10317 0.074774 0.094684 -0.094059 -0.094842 -0.097673 -0.050159 0.0061902 -0.042362 -0.0053218 0.063337 0.21755 -0.054033 -0.14175 0.030145 -0.048974 0.18545 -0.27542 0.064376 0.24441 -0.25858 -0.50091 -0.23753 -0.1111 0.3399 0.089675 0.014678 0.013658 0.023666 0.69257 0.17377 0.18901 0.17423 0.18969 -0.068734 0.19488 -0.34729 -0.27856 0.16503 -0.1732 -0.048019 0.077528 -0.077161 0.19997 0.16228 
appl 0.017375 -0.55172 0.29513 -0.60471 -0.1498 -0.24564 0.32408 -0.059217 -0.017932 0.18074 -0.061724 -0.038993 -0.26949 -0.22971 -0.41064 0.058232 0.0088978 0.13876 -0.23455 -0.0036497 0.32892 0.066458 -0.40404 -0.028725 0.75431 -0.22781 -0.1292 -0.04138 0.063689 0.28839 -0.1214 0.10545 -0.32948 0.2023 -0.13383 -0.10445 0.16156 0.11276 0.29379 0.43772 0.25298 0.63806 0.32947 -0.12288 0.27574 0.13787 0.11769 -0.077213 -0.073616 -0.016042 0.40553 -0.18595 -0.044474 -0.1919 -0.0089729 0.016125 -0.17236 -0.047318 0.34963 0.10293 0.41547 0.65172 0.023581 -0.11291 -0.15265 0.11702 -0.19831 -0.14271 0.076119 -0.41556 -0.065912 0.0046917 -0.22278 -0.050613 -0.063116 0.43495 0.31183 -0.2722 0.2504 -0.5293 -0.22153 -0.322 -0.35823 -0.49075 0.18048 -0.33837 0.15821 0.19234 -0.13556 -0.014912 -0.19951 -0.25705 0.084177 -0.6843 -0.0029684 -0.1246 -0.24812 0.22434 0.42203 0.062055 
mac -0.12572 -0.41271 0.10822 -0.21434 -0.28859 -0.34495 0.33758 -0.077639 0.23502 0.28179 -0.26929 -0.037425 -0.21511 -0.18242 -0.63769 -0.12758 0.13179 0.094304 -0.31935 -0.08329 0.094107 -0.095743 -0.51225 0.038569 0.80497 -0.32632 0.08676 -0.40134 -0.11008 0.21655 0.051659 -0.0095446 -0.47915 -0.19689 -0.34767 -0.31879 0.058559 0.14983 0.31754 0.38144 0.25764 0.5108 0.22134 -0.0017705 -0.035886 0.31938 -0.14202 -0.053162 -0.21683 0.087566 0.2594 -0.1007 -0.1526 -0.1988 -0.077205 0.068998 -0.14303 -0.098305 0.117 0.15353 0.39572 0.71304 0.18083 0.17664 -0.026218 0.039768 -0.086693 -0.058481 0.22284 -0.5602 0.14312 -0.065247 -0.032367 -0.076496 -0.12419 0.4712 0.65315 -0.34215 0.39624 -0.53815 -0.12626 -0.30683 -0.42661 -0.53155 0.056856 -0.59814 0.091556 0.06095 -0.10121 -0.20524 -0.29089 -0.1129 0.36014 -0.56807 0.070839 0.083635 -0.058872 0.6193 0.20001 0.42023 
card 0.026592 -0.13047 0.093453 0.19662 -0.26676 -0.010952 0.08619 0.02231 -0.19108 -0.24286 0.095179 -0.06986 -0.078235 -0.15196 0.062194 0.046368 -0.075322 0.032493 0.033521 0.13617 -0.055012 -0.14261 -0.029979 0.11737 0.014587 0.16968 -0.074119 0.18408 0.077877 -0.17364 0.12325 0.1002 0.18617 0.079836 0.17346 0.076828 -0.051039 0.11049 0.015314 -0.017377 -0.063299 -0.12325 -0.038617 0.013508 -0.051668 -0.074528 -0.042652 -0.012784 0.10152 -0.092185 0.21187 -0.14585 0.1981 -0.049442 0.1076 0.0020185 0.0032978 -0.018037 -0.11313 -0.03201 0.046969 -0.19478 -0.24181 -0.17881 0.055987 -0.090913 0.16909 0.046073 0.028567 -0.06703 0.17143 -0.15507 0.090043 0.086556 0.02894 0.077736 -0.14491 -0.1795 -0.047188 0.026122 0.086204 -0.018717 -0.097043 0.214 -0.16561 0.13962 -0.082963 -0.094183 0.1175 -0.052805 -0.16457 -0.073246 -0.2187 0.1774 -0.036653 0.22576 -0.097304 -0.090899 0.094863 0.027703 
4s -0.28743 0.74954 -0.12894 -0.28129 0.3738 0.40342 0.12251 -0.028138 0.41329 0.71298 0.020418 0.47793 0.10427 0.41599 0.18897 -0.37612 -0.34704 0.01964 0.16578 -0.43925 -0.020266 0.71172 0.38708 -0.16752 -0.12944 0.080627 0.095381 -0.47345 -0.33013 0.13653 0.12963 -0.05492 -0.40798 -0.30564 -0.35371 0.070602 0.063167 -0.27649 -0.3258 -0.20901 0.29209 0.17942 -0.098745 -0.038537 -0.19835 -0.038998 0.045246 -0.15707 -0.26411 0.18182 -0.55043 0.12157 -0.55137 0.081908 -0.23053 -0.24501 0.032313 0.19859 0.56413 0.34429 -0.68853 0.021756 0.30261 0.041399 -0.27962 0.068488 -0.25256 0.12996 0.14166 0.12819 -0.14031 0.03369 0.23354 0.18429 -0.028514 -0.1171 0.71869 0.48953 0.29812 -0.34399 -0.24316 0.28767 0.62541 -0.15764 -0.051093 -0.25692 -0.22425 0.06209 -0.29422 -0.096132 0.1646 0.10432 0.565 -0.035498 -0.057977 -0.45744 0.24142 0.83776 -0.44527 -0.094237 
touch 0.10177 0.19834 0.18017 -0.44839 0.29688 0.14732 0.085991 0.055989 0.12311 0.28856 0.23196 0.51549 0.0080246 -0.084126 -0.095427 0.25951 -0.044647 0.030127 0.045175 -0.067758 0.34427 0.5208 0.33561 -0.26808 0.084876 -0.0062655 -0.13347 0.0053449 0.20673 0.38717 -0.56789 -0.34011 -0.42104 0.22617 0.092321 0.20773 0.1452 -0.018781 -0.17679 0.12991 -0.086733 0.2673 0.37034 -0.39615 0.21726 -0.12022 0.38431 -0.39201 -0.37556 -0.089293 0.091923 0.21366 -0.38888 0.074915 0.030307 -0.24749 0.025778 0.21891 0.3432 0.070264 -0.08263 0.29246 -0.16997 -0.04096 -0.074111 0.32338 -0.63688 0.061576 0.13749 0.3741 -0.53541 0.1788 -0.27983 -0.034104 0.076495 -0.33882 -0.13623 0.041926 -0.14095 -0.078513 -0.19984 0.24171 0.2291 -0.39502 0.42692 -0.21221 0.33679 0.1807 -0.058611 0.16663 0.10045 -0.10916 0.069011 -0.26553 -0.085559 -0.51241 0.029511 -0.12836 0.0028406 -0.53963 
360 -0.010348 -0.20108 0.035295 0.33535 -0.32359 -0.21203 -0.014644 0.057899 0.30385 -0.21602 -0.21232 0.38902 -0.083324 -0.076024 -0.22405 0.39786 0.069178 -0.22969 -0.21446 0.23616 0.021252 -0.2715 -0.11062 -0.029483 0.30206 0.131 -0.063143 -0.13266 -0.097164 0.046778 0.18271 -0.27355 -0.22572 0.053293 -0.22771 -0.19759 0.15213 -0.16387 0.14637 -0.12742 -0.23554 0.16104 0.079354 -0.091985 -0.36854 0.27129 -0.35618 -0.32252 0.0071048 0.05438 0.19485 0.10402 0.18583 0.14564 0.021675 0.12463 -0.13785 -0.0091637 -0.21297 0.0055098 0.01451 -0.46297 -0.11802 -0.17429 -0.28211 -0.52774 0.4262 0.45402 0.1745 -0.23516 -0.42474 -0.18319 -0.072348 0.36114 0.4393 0.35722 -0.097251 0.07099 -0.23774 -0.045073 -0.16271 -0.19504 0.029362 -0.14243 -0.36803 0.099027 0.045868 -0.085763 -0.066863 -0.45574 -0.30749 -0.35737 -0.26952 0.29584 -0.059127 -0.12987 -0.090519 0.094507 -0.16585 -0.001619 
ps3 -0.081907 -0.097791 0.034893 0.080417 0.15483 -0.17221 -0.067897 0.4248 0.56853 0.22721 -0.19933 0.10483 0.27958 0.3601 -0.50913 0.12488 0.3277 -0.026205 -0.18815 -0.10992 -0.27647 -0.16729 0.015634 -0.25892 -0.028235 -0.29452 0.0037035 -0.35632 -0.21376 0.29051 -0.11099 -0.32245 -0.1766 -0.29447 -0.17084 -0.25032 0.22193 -0.20577 0.048768 0.049255 0.072456 -0.047879 -0.12011 -0.042689 -0.18191 0.64664 -0.13398 -0.18485 -0.059713 0.24996 0.11882 0.33647 -0.63771 0.27871 -0.16681 -0.12316 -0.0019649 0.1434 -0.2154 0.14223 -0.252 0.047301 0.41653 0.13367 0.17228 -0.34707 -0.045141 0.37462 0.13611 -0.27807 -0.34848 0.16951 -0.29187 0.1535 0.11883 0.21316 0.10014 -0.017962 -0.12414 0.18879 -0.045998 0.1402 0.21738 -0.4138 0.19125 -0.3083 0.21609 -0.046611 -0.071149 -0.20216 0.40103 -0.10372 0.076864 0.15334 -0.046487 -0.27467 0.55258 -0.024287 -0.30572 0.30396 
macbook 0.039371 -0.55111 0.091845 -0.27101 -0.2166 -0.47065 0.17037 -0.13137 0.32612 0.35424 -0.31965 0.044763 -0.41684 -0.14959 -0.77109 -0.13585 0.26355 -0.12836 -0.36277 -0.034274 0.29749 -0.10156 -0.68549 0.1037 0.75813 -0.38549 0.18813 -0.59475 -0.22661 0.23512 0.09722 -0.0021145 -0.64029 -0.13265 -0.46651 -0.48421 0.12618 0.2733 0.49844 0.5729 0.092736 0.59017 0.24259 -0.042683 -0.0084584 0.52524 0.047279 0.075112 -0.17603 0.24745 0.15887 -0.091003 -0.24192 -0.27095 -0.16021 0.22262 -0.14607 -0.19647 0.048913 0.03951 0.48593 0.92869 0.40895 0.23415 -0.006543 0.1142 -0.078788 -0.20692 0.23032 -0.7442 0.21329 0.037223 -0.028728 -0.14731 -0.13191 0.60502 0.72164 -0.46202 0.52281 -0.59395 -0.081586 -0.35371 -0.50612 -0.69701 0.36841 -0.78441 0.17676 0.18879 0.015662 -0.34053 -0.40788 -0.246 0.4265 -0.57958 0.018024 -0.044691 -0.035124 0.61547 0.35613 0.50256 
radio 0.11325 -0.033863 0.12526 0.089601 -0.32256 0.02216 -0.01327 0.042986 -0.17989 -0.25726 0.23 0.06798 -0.19443 -0.16219 0.05657 0.075487 -0.053295 -0.041025 -0.012474 0.11347 0.025362 -0.10759 -0.035839 0.1873 -0.049742 0.28407 -0.23273 0.15793 0.058311 -0.21474 -0.048392 0.12058 0.16466 0.14085 0.29461 0.0015544 -0.061985 0.099922 0.029107 0.17195 -0.12532 -0.19433 0.0015572 -0.084168 -0.042174 -0.032442 0.15957 -0.014327 0.14704 -0.029472 0.2439 -0.13556 0.16128 -0.062409 0.01548 -0.027205 0.039822 -0.053305 -0.086329 -0.10178 0.031761 -0.24094 -0.36325 -0.24087 0.018252 -0.066067 0.15046 0.011518 -0.051147 -0.018206 0.1537 -0.058999 0.0018883 0.078003 0.18363 0.035721 -0.27024 -0.328 -0.12488 0.04968 0.12061 0.017369 -0.093476 0.16877 0.072137 0.080867 -0.026094 -0.15302 0.13996 -0.1349 -0.22656 -0.11783 -0.24988 0.25687 -0.13303 0.21433 -0.15342 -0.10387 0.19532 -0.027237 
galaxi -0.10318 0.25142 -0.24624 -0.17201 0.33109 0.27754 -0.040152 -0.26547 0.25114 0.38533 0.055875 0.42777 -0.059525 0.33623 0.43109 -0.0391 -0.21834 -0.13474 0.23473 -0.094731 0.45648 0.32689 0.15835 -0.22524 -0.026624 0.30783 0.39096 0.10944 -0.054351 0.2771 0.1368 0.03317 -0.19197 0.32084 -0.071399 0.2374 0.16919 0.04037 -0.0079466 -0.004156 0.0067979 -0.17307 0.21158 -0.2155 -0.048263 -0.19748 0.1106 -0.023558 -0.063623 0.042667 0.0033894 -0.075153 -0.18458 -0.19217 0.09662 0.16863 0.20866 -0.047853 0.035653 0.019141 -0.25963 0.034916 -0.032231 -0.09277 -0.070967 0.31342 0.024799 -0.12925 0.13709 0.16591 -0.22281 0.071369 -0.015984 0.3045 -0.074103 -0.1657 -0.15109 0.16716 0.13249 -0.059314 -0.26134 0.20904 0.18795 -0.11161 0.19714 -0.074828 0.17911 0.25334 -0.30516 0.11008 0.13953 -0.2465 -0.040443 0.062482 -0.2234 -0.40185 0.10709 -0.20354 0.067466 -0.12787 
ray -0.042021 0.057227 0.058161 0.03693 -0.031594 0.043329 0.13103 0.041449 0.039139 0.02844 0.00576 0.013592 0.095488 -0.062383 -0.093185 0.044059 0.0056618 0.099409 -0.026248 -0.049719 -0.08874 0.055526 0.092833 -0.059782 0.088921 -0.03442 -0.070986 0.006659 0.036569 0.063821 -0.085656 -0.0018436 -0.066646 -0.0986 0.014387 0.00555 -0.03653 -0.090053 -0.063683 -0.091884 0.074987 0.067274 0.025534 0.030715 -0.035172 -0.028709 -0.070911 -0.080806 -0.083378 -0.017939 -0.031472 0.064115 -0.02854 0.068267 -0.016075 -0.12321 -0.036053 0.045273 0.040542 0.077962 -0.028258 0.018584 -0.04975 -0.014611 -0.04585 -0.043921 -0.11723 0.11868 0.071008 0.084387 -0.03374 -0.017778 -0.01877 -0.0027878 -0.031291 -0.033586 0.15758 0.070598 -0.070508 -0.042162 -0.041638 0.049962 0.016384 -0.037469 -0.15319 -0.018313 0.012391 -0.076066 -0.0037449 -0.014379 -0.024667 0.07674 0.10728 -0.080066 0.046523 0.00056639 -0.0071976 0.121 -0.061968 -0.024107 
game -0.078297 -0.082522 -0.012583 0.15352 -0.079953 -0.10691 0.068874 0.052228 0.17896 -0.0197 -0.099481 0.039261 0.11119 0.010605 -0.15809 0.10431 0.096485 -0.014894 -0.070953 -0.0071358 -0.05895 -0.11201 -0.036967 -0.068782 0.09834 -0.029355 0.018456 -0.043742 -0.0041691 0.11292 0.039391 -0.083783 -0.074567 -0.060842 -0.0364 -0.10039 0.098605 -0.042615 0.045815 -0.10824 0.034706 0.012004 -0.0048636 0.010746 -0.15946 0.16723 -0.12643 -0.069414 0.033453 0.015461 0.033363 0.12919 -0.057028 0.022791 0.024159 -0.067538 0.041048 0.037355 -0.1274 0.063991 -0.056865 -0.042902 0.038761 -0.034814 -0.023525 -0.14006 0.10808 0.19032 0.13891 -0.045142 -0.11276 -0.052187 -0.092501 0.098252 0.030543 0.067923 0.03237 0.020405 -0.10998 0.013022 -0.00073195 0.037491 0.018439 -0.14632 -0.13649 -0.078629 0.040464 -0.01422 0.0061057 -0.12086 0.019613 -0.051937 -0.00066595 0.023306 0.0047222 -0.012479 0.12555 0.049958 -0.054214 0.10869 
4 -0.2289 0.27478 -0.067149 -0.1907 0.14192 0.14402 0.0079961 -0.0029488 0.26579 0.2313 0.0096887 0.34419 -0.059656 0.37308 0.10174 -0.11915 -0.21789 -0.0046215 0.23757 -0.20098 0.10714 0.41915 0.18226 -0.10923 -0.08557 0.20224 0.16548 -0.15566 -0.1478 0.16327 0.11662 0.066535 -0.18358 0.0016562 -0.14269 0.10166 0.29091 -0.12394 -0.0070072 0.036735 0.15581 -0.014649 0.047263 -0.10943 -0.040751 -0.024556 0.20917 -0.064719 -0.0608 0.22067 -0.23203 0.050388 -0.31094 0.089656 -0.084059 -0.0060055 0.056556 -0.068192 0.20796 0.056821 -0.51525 -0.068181 0.090242 -0.18612 -0.28354 -0.011591 0.052432 0.030699 0.13807 -0.032518 -0.098787 -0.034765 -0.023412 0.2976 0.10266 0.1045 0.10096 0.27502 0.16294 -0.14244 -0.16972 0.15437 0.29948 -0.17283 0.1921 -0.073969 -0.072345 0.19808 -0.11221 -0.17576 0.12574 -0.19513 0.026773 0.025068 -0.26081 -0.35061 0.15078 0.23432 0.10687 -0.061031 
canon 0.018526 0.081286 -0.25947 0.38288 -0.14137 -0.17378 0.083263 -0.07513 -0.044329 -0.24527 0.021437 0.08971 0.09643 0.01124 -0.23228 -0.18512 0.071294 -0.10974 -0.0022808 0.051593 0.0003155 -0.074577 -0.0748 0.20662 -0.028499 -0.15844 -0.1927 -0.26194 -0.23363 -0.02065 -0.10558 -0.093973 -0.17654 -0.25064 -0.13808 -0.23275 0.066689 -0.097112 0.074956 0.22061 -0.077339 0.147 -0.032107 0.18214 -0.18068 0.35633 0.091127 0.0056065 -0.21496 0.26555 -0.096814 0.19612 0.011657 0.10934 -0.027664 -0.22663 0.14057 -0.084514 -0.041903 -0.27353 -0.065158 0.17307 0.2891 0.17426 0.14615 -0.12413 -0.19905 0.14526 0.11634 -0.075374 -0.1772 -0.10398 0.10806 -0.022284 0.11982 0.15138 -0.12345 -0.090676 0.016299 -0.090299 0.025854 -0.024953 0.042848 -0.24603 0.1738 -0.25399 0.078539 -0.16525 0.24793 -0.61528 -0.083716 0.0027531 -0.045207 0.15984 0.036646 -0.099767 -0.00022829 0.015143 -0.16019 -0.05381 
digit 0.08136 0.20483 -0.079047 0.075779 0.017366 -0.11849 -0.056123 0.0379 -0.10401 -0.13503 0.12693 0.08798 0.014261 0.022625 -0.28416 -0.23005 0.050426 0.03873 -0.057513 -0.029986 -0.13951 0.099088 0.021328 0.20481 -0.13785 -0.23038 -0.27692 -0.25644 -0.12305 -0.1368 -0.17198 -0.21533 -0.074505 -0.21719 -0.06535 -0.1452 -0.0621 -0.15977 -0.13877 0.072174 -0.077954 0.15418 -0.10583 0.13149 -0.0016003 0.20155 0.026137 -0.080445 -0.17269 0.10947 -0.18004 0.12096 -0.037649 0.26421 -0.10407 -0.21522 -0.092207 0.043097 0.17415 -0.14755 -0.044158 0.084234 0.2533 0.30156 0.12665 -0.1904 -0.23488 0.040322 -0.051217 -0.015227 -0.1303 0.01958 0.10397 -0.1132 0.15231 -0.081105 -0.11875 0.024083 0.041923 0.0050183 0.026888 -0.042269 0.16233 -0.07107 0.16386 -0.13543 -0.028107 -0.18741 0.09846 -0.25851 0.091238 0.15175 -0.0040795 0.049324 0.084273 -0.0775 -0.060794 0.14193 -0.28354 -0.15409 
laborday -0.015408 0.16353 -0.084167 -0.14102 0.21211 -0.0018311 -0.00078347 -0.019263 0.14599 0.25781 -0.037265 0.10332 0.080876 0.071105 -0.1277 -0.098117 0.019439 0.01635 -0.0087164 -0.098726 -0.0013224 0.1584 0.097162 -0.092329 0.050539 -0.21586 0.048519 -0.20598 -0.062268 0.15051 -0.14195 -0.089996 -0.22967 -0.16417 -0.20216 -0.059296 -0.0025702 -0.11838 -0.048915 0.0075948 0.05321 0.17897 0.052445 -0.019035 0.030514 0.060822 -0.023643 -0.045887 -0.20607 0.093032 -0.21811 0.15714 -0.19973 0.077118 -0.092642 -0.057557 -0.060312 0.052091 0.13311 0.029423 0.016504 0.21115 0.25003 0.21675 0.018361 0.069182 -0.2468 0.0035443 0.043424 0.056133 -0.12444 0.12534 -0.022616 -0.11313 -0.051578 -0.049512 0.22739 0.13458 0.060846 -0.093957 -0.094705 0.059859 0.14163 -0.20242 0.072402 -0.21871 0.065521 0.0048698 -0.069449 -0.019876 0.09844 0.11575 0.26169 -0.19562 0.068934 -0.18966 0.077012 0.17416 -0.16858 -0.073945 
dre -0.035383 0.090759 -0.29669 0.2602 0.1748 -0.20123 -0.25365 0.024569 0.46942 0.010824 -0.25755 -0.037114 0.25391 0.45364 -0.58573 0.26042 0.50381 -0.11327 -0.38913 -0.36303 0.0074765 0.27209 -0.36301 -0.15797 -0.27577 -0.31085 0.094487 -0.33356 -0.046201 0.45951 -0.1597 -0.52924 -0.030197 -0.17309 -0.013921 -0.38394 0.33348 -0.027077 0.13043 -0.32089 0.22304 0.10117 -0.039495 0.22156 -0.18874 0.30137 0.15802 -0.12413 0.0022039 -0.097008 -0.25779 0.48065 -0.48926 0.024995 -0.0019668 -0.26185 0.20918 0.2451 -0.071273 0.10747 -0.18684 0.35032 0.40803 0.33174 -0.041298 0.17841 -0.014239 0.21932 0.090206 0.23179 -0.21936 0.35907 -0.3561 -0.046956 -0.074749 -0.43516 0.1569 0.13971 0.037219 0.25334 -0.024066 0.094266 0.13662 -0.3794 0.36018 -0.061543 0.17057 0.24454 0.066906 0.032723 0.46532 -0.10297 0.37383 -0.30239 0.10336 -0.2664 0.356 0.36393 -0.15725 0.30757 
wii -0.034399 0.027325 0.050305 0.037361 -0.19661 -0.11035 -0.017961 -0.017452 -0.056274 -0.14877 0.1063 0.083432 -0.023107 0.093584 0.057388 -0.11903 -0.084053 0.019747 0.076015 0.072948 0.0035277 -0.19586 -0.014613 0.085606 -0.029006 0.12623 -0.042899 0.010259 0.047397 -0.09071 0.017207 0.070457 0.062447 0.13271 0.074813 0.035348 0.064878 -0.019884 0.048685 0.093621 -0.054851 -0.15352 -0.026875 -0.054105 -0.12104 0.088213 -0.043136 0.087878 0.098745 -0.026196 0.12226 -0.089064 0.016055 -0.046384 0.00068839 0.073061 0.073254 -0.017844 -0.029181 -0.03628 -0.075738 -0.15184 -0.11503 -0.16487 0.12505 -0.18248 0.14178 -0.078322 0.082587 -0.14014 0.047528 -0.13772 0.064186 0.12117 0.14553 0.16334 -0.23587 -0.11893 -0.10653 -0.032528 -0.03255 -0.031255 0.05607 0.035929 0.035838 0.0070514 -0.00088973 -0.13707 -0.0056023 -0.07434 -0.068322 -0.067477 -0.27833 0.19128 -0.05618 0.12309 0.052091 -0.14917 0.12716 0.038643 
20110902 -0.02334 0.17974 -0.084706 -0.13801 0.22518 -0.0018089 0.0041545 -0.027951 0.14026 0.25833 -0.050944 0.1007 0.091943 0.056752 -0.13982 -0.088201 0.024629 0.020712 -0.006664 -0.095957 -0.0067471 0.15765 0.103 -0.096127 0.060746 -0.21838 0.053905 -0.19097 -0.063086 0.14942 -0.15785 -0.1061 -0.21864 -0.15939 -0.20872 -0.066181 0.0092814 -0.12023 -0.050609 0.0071933 0.053955 0.19191 0.062946 -0.014285 0.025474 0.061376 -0.01001 -0.046723 -0.21184 0.096901 -0.20619 0.14924 -0.19097 0.074802 -0.10729 -0.045671 -0.060234 0.058658 0.14007 0.037736 0.0137 0.21806 0.23386 0.19733 0.0013657 0.065418 -0.25951 0.011288 0.033699 0.048097 -0.13295 0.10913 -0.013477 -0.12085 -0.051468 -0.049788 0.212 0.12958 0.062859 -0.091979 -0.096821 0.053677 0.13159 -0.21009 0.054232 -0.21161 0.074832 0.012517 -0.057182 -0.0060562 0.10513 0.11908 0.26095 -0.20526 0.069276 -0.18111 0.088894 0.16123 -0.16809 -0.070643 
hard -0.020339 0.017888 0.072883 0.084187 -0.11811 -0.00059409 0.060301 0.035778 0.025592 -0.0052596 0.026032 0.024491 -0.041552 -0.056225 -0.074558 -0.015306 -0.048422 0.072785 0.0016695 0.0093703 -0.035942 0.017979 0.018111 0.061763 0.048032 0.075453 -0.0085492 0.037344 -0.0027787 -0.063024 0.0705 0.010492 -0.022194 -0.015952 0.029758 0.025727 0.029748 0.035482 -0.02612 0.0042913 -0.017387 -0.0121 -0.048425 -0.030609 -0.043998 0.033491 0.06172 -0.041522 0.020143 -0.03301 0.027696 -0.0090403 0.043899 0.024909 -0.013592 -0.047347 0.0076012 -0.015148 0.011533 -0.0063462 -0.053143 -0.046313 -0.073103 -0.023294 0.016952 -0.073739 0.036305 0.042922 0.061268 -0.019615 0.074965 -0.106 -0.011459 0.051588 0.034538 0.061617 0.003426 -0.07783 -0.030165 -0.083414 0.021756 0.033668 0.013143 0.021783 -0.091564 -0.076034 -0.035939 -0.054438 0.049247 -0.10304 -0.11783 -0.037216 -0.0092178 0.064261 -0.027045 0.043859 -0.0074374 0.099229 0.025362 -0.0056133 
3d 0.18101 0.26382 0.172 -0.28584 0.18922 0.022057 -0.23892 0.18512 -0.2061 0.12679 0.02427 -0.010458 -0.090095 0.067205 0.014259 -0.28214 -0.059492 0.051675 0.03819 -0.0078618 -0.2098 0.12637 0.17892 0.10214 -0.26809 -0.15817 -0.16164 -0.26705 -0.038894 -0.32339 -0.11841 -0.10584 0.087524 -0.22322 -0.13698 -0.024852 -0.18299 -0.14806 -0.17856 0.14212 -0.083651 0.035045 -0.19486 0.00063853 0.21623 -0.11436 -0.013377 -0.024694 -0.16017 0.051652 -0.23965 -0.082803 -0.1361 0.18774 -0.26027 0.035519 -0.24173 0.084591 0.29529 0.045581 0.047316 -0.038799 0.20053 0.26741 0.11752 -0.074314 -0.2272 -0.18966 -0.26168 -0.094796 0.08342 0.13969 0.19643 -0.23943 0.048206 -0.062343 0.15218 0.086206 0.11886 0.057057 0.058229 -0.14938 0.12568 0.13427 0.24095 0.10323 -0.19207 -0.131 -0.096221 0.20324 0.022639 0.24893 0.12085 -0.034648 0.18415 0.018583 -0.090653 0.12846 -0.21044 -0.13536 
war -0.24315 0.071492 -0.037293 0.10589 -0.08335 0.007954 0.22542 0.068917 0.27582 0.039201 -0.082871 0.10573 0.23116 0.070485 -0.16685 0.11799 -0.0013524 0.10473 -0.031844 -0.14036 -0.11539 0.035858 0.10401 -0.1366 0.22105 -0.043525 -0.062349 -0.044905 -0.020901 0.22083 -0.033368 -0.1005 -0.15388 -0.13394 -0.11143 -0.013095 0.14374 -0.15981 -0.038828 -0.21357 0.2014 0.146 0.039572 0.04508 -0.20668 0.10573 -0.18675 -0.1881 -0.11093 0.046624 -0.033076 0.19537 -0.1258 0.13164 0.040636 -0.18742 0.037118 0.060674 0.013555 0.14267 -0.19344 -0.061808 0.013574 -0.088611 -0.18089 -0.1785 0.010987 0.35002 0.23637 0.043594 -0.23867 -0.088309 -0.13363 0.19037 0.07247 0.073513 0.1935 0.18868 -0.10563 -0.13707 -0.14179 0.10539 0.17705 -0.21153 -0.30568 -0.099007 0.020351 -0.033761 -0.050755 -0.19328 0.076322 -0.01579 0.089095 -0.04804 -0.030528 -0.12083 0.14624 0.26351 -0.1312 0.012826 
usb 0.19198 -0.18776 0.10594 0.080291 -0.1878 -0.030701 -0.11613 0.0044537 -0.22291 -0.22092 0.069922 -0.058038 -0.24349 -0.12622 0.16857 0.0044424 -0.032987 -0.12866 0.0040392 0.20615 0.061925 -0.14489 -0.11289 0.17846 -0.11672 0.22163 -0.0098869 0.14909 0.03569 -0.28454 0.14884 0.11176 0.19944 0.21652 0.16492 0.024533 -0.049686 0.19989 0.094421 0.18356 -0.23586 -0.22502 -0.056252 -0.063162 0.083508 -0.027799 0.11053 0.11096 0.18827 -0.074213 0.2229 -0.23487 0.22752 -0.081671 0.044177 0.15995 -0.0012236 -0.12219 -0.15247 -0.14062 0.12429 -0.18086 -0.1853 -0.13484 0.10393 -0.032494 0.21113 -0.15381 -0.13352 -0.17104 0.21163 -0.09094 0.10858 -0.0013569 0.042789 0.098431 -0.28566 -0.25923 0.014184 0.10071 0.14721 -0.11645 -0.21108 0.2393 0.13318 0.17668 -0.038675 -0.036855 0.079048 0.010723 -0.22892 -0.14037 -0.29169 0.27095 -0.07913 0.18474 -0.17579 -0.2653 0.19772 0.048615 
adapt 0.087238 -0.19466 0.085785 0.072584 -0.17572 -0.075925 -0.00038592 -0.050937 -0.041105 -0.041748 0.014036 -0.043328 -0.19543 -0.2222 0.022536 -0.025213 0.011269 -0.1081 -0.039202 0.11242 0.040784 -0.14383 -0.12651 0.13258 0.051544 0.1069 0.058851 0.0036126 -0.059801 -0.12197 0.12187 0.17747 -0.077258 0.061426 0.038184 -0.082019 -0.057776 0.17763 0.14845 0.15353 -0.1775 -0.032714 -0.01123 -0.0429 -0.025908 0.0981 0.12529 0.12213 0.13835 0.054305 0.040207 -0.094168 0.14318 -0.13914 -0.0036865 0.10611 0.02459 -0.14439 -0.1043 -0.10292 0.11616 0.027011 -0.074131 -0.12064 0.020954 0.0086157 0.067938 -0.071438 -0.011578 -0.17122 0.22783 -0.084068 0.11027 -0.056508 -0.0089217 0.1842 0.033187 -0.20708 0.057378 -0.084719 0.13207 -0.035117 -0.19531 0.053763 -0.0038601 -0.11393 -0.03082 0.012493 0.16299 -0.12932 -0.2916 -0.059877 -0.065492 0.1075 -0.050628 0.1608 -0.09394 -0.017749 0.18593 0.12305 
bose 0.14855 -0.0027703 -0.13691 0.18838 -0.07542 -0.21071 -0.3585 0.069504 0.206 -0.23087 0.050067 0.20313 -0.11372 0.31542 -0.4294 0.222 0.41201 -0.21155 -0.32573 -0.13865 0.18333 0.25505 -0.43123 0.026133 -0.35926 -0.03406 -0.077071 -0.20328 0.072512 0.26462 -0.26877 -0.39105 0.1303 0.2066 0.33158 -0.29331 0.42286 0.1066 0.3085 0.059018 0.019122 -0.019931 0.019611 0.0030849 -0.042197 0.34986 0.48077 -0.21469 0.18679 -0.1299 0.15035 0.26596 -0.40556 0.0092953 0.041472 -0.2034 0.17731 0.12582 -0.0601 -0.087963 -0.16625 0.098656 0.094009 0.0048851 -0.049165 0.10705 0.10602 0.047899 -0.0080297 0.1011 -0.21824 0.27203 -0.42121 0.093591 0.23113 -0.32016 -0.43525 -0.18903 -0.12285 0.33046 0.017979 0.055944 0.10393 -0.15731 0.74145 0.078452 0.26896 0.25507 0.17191 -0.084223 0.29573 -0.39758 -0.18799 -0.0069132 -0.19496 -0.24131 0.17157 0.00040815 0.19773 0.13376 
kindl -0.77684 0.14796 -0.62403 0.36217 0.09795 -0.64327 -0.2109 0.11707 0.16757 -0.4853 0.55257 0.55514 -0.0091269 0.95121 -0.43563 -0.30845 -0.0689 0.32136 0.31905 0.48166 0.1626 -0.63332 -0.205 0.28843 0.21007 -0.86004 0.22164 -0.10659 -0.13131 0.48635 -0.24134 -0.46761 0.3187 0.39131 -0.53278 0.55041 0.08745 0.14019 0.30174 0.12231 -0.24455 0.33821 0.69559 -0.58729 -0.28909 -0.36798 0.13463 -0.17085 -0.66939 0.61727 0.057326 0.1246 -0.063569 0.13594 0.36985 0.18003 -0.18457 0.24276 -0.37594 -0.22809 0.046848 0.031521 0.14961 0.0076801 0.0090074 0.18044 0.081695 0.23833 0.96858 0.066306 -0.18832 0.37335 0.0085224 0.15445 0.4368 0.019157 -0.098314 -0.27644 -0.074236 -0.52826 -0.50067 0.43326 0.75986 0.0017613 0.19935 -0.34012 -0.024599 0.10289 0.39495 -0.53251 0.99029 -0.63992 0.18041 -0.26685 -0.77707 -0.19365 0.42723 -0.22572 -0.017475 -0.49753 
2127213 0.011829 0.22878 -0.011248 -0.19037 0.21193 0.0080578 -0.064648 0.070979 0.054172 0.20758 -0.044009 0.037401 0.064913 0.093874 -0.12352 -0.1638 -9.832e-06 0.066752 0.0002494 -0.1007 -0.11947 0.13181 0.11218 -0.024788 -0.054101 -0.25963 -0.038014 -0.26165 -0.071759 -0.0060626 -0.12519 -0.10123 -0.12164 -0.24821 -0.2076 -0.077339 -0.051106 -0.13936 -0.13237 0.0030411 0.049305 0.1873 -0.070569 0.030826 0.055876 0.031947 -0.018754 -0.024651 -0.18486 0.09237 -0.28508 0.1167 -0.19046 0.14565 -0.16135 -0.068341 -0.11287 0.098185 0.21527 0.060802 -0.018876 0.1452 0.27746 0.24811 0.011795 -0.0059838 -0.24336 -0.01719 -0.043177 0.0038129 -0.053059 0.12038 0.046819 -0.1764 -0.0183 -0.065355 0.29052 0.14674 0.076887 -0.057419 -0.02962 -0.016085 0.16885 -0.1101 0.076234 -0.11589 -0.047831 -0.040692 -0.052767 0.03183 0.099591 0.18748 0.29189 -0.18769 0.11875 -0.12366 0.059916 0.24831 -0.21603 -0.068787 
2121716 0.016234 0.22175 -0.0019373 -0.17513 0.22283 -7.4696e-05 -0.059604 0.078517 0.062019 0.21105 -0.05062 0.039323 0.067842 0.085173 -0.11668 -0.15601 -0.0046584 0.072808 -0.010832 -0.094733 -0.10962 0.13265 0.11179 -0.021616 -0.047758 -0.25491 -0.031145 -0.25356 -0.076193 -0.019939 -0.13019 -0.10621 -0.11553 -0.23927 -0.20756 -0.076545 -0.054478 -0.15066 -0.1288 0.0052203 0.046416 0.18633 -0.058825 0.016716 0.059945 0.020611 -0.016187 -0.021349 -0.18672 0.084916 -0.28191 0.12707 -0.18877 0.14188 -0.15414 -0.079711 -0.10884 0.085896 0.20645 0.05053 -0.026527 0.13035 0.27834 0.25001 0.0056504 -0.00026387 -0.24994 -0.01706 -0.0337 0.0021515 -0.049578 0.11966 0.048645 -0.17936 -0.0053645 -0.068047 0.2845 0.15139 0.088572 -0.056133 -0.025011 -0.026312 0.16965 -0.10816 0.092527 -0.12176 -0.051791 -0.049922 -0.064543 0.02487 0.10062 0.18028 0.28845 -0.17542 0.13194 -0.11015 0.049234 0.24828 -0.2189 -0.073919 
2138291 0.0044705 0.23553 -0.011065 -0.18571 0.2122 0.009403 -0.069918 0.080786 0.065001 0.20067 -0.042855 0.024448 0.053817 0.092193 -0.12823 -0.16384 0.010107 0.056387 -0.006284 -0.08871 -0.12005 0.13457 0.097144 -0.014805 -0.044551 -0.24236 -0.033241 -0.26832 -0.075595 -0.016459 -0.12191 -0.11292 -0.13089 -0.25095 -0.2191 -0.083089 -0.058035 -0.14433 -0.12866 0.01896 0.052471 0.16965 -0.069715 0.017438 0.060362 0.035693 -0.017346 -0.033563 -0.19578 0.079928 -0.28916 0.12332 -0.19537 0.14611 -0.16539 -0.072737 -0.11106 0.092721 0.20384 0.048746 -0.018342 0.13375 0.26291 0.25074 0.0096965 -0.015805 -0.24193 -0.021719 -0.032521 0.0083282 -0.060598 0.11705 0.053902 -0.17827 -0.02044 -0.064584 0.29174 0.14361 0.077167 -0.0438 -0.024267 -0.026857 0.16534 -0.10226 0.089243 -0.1097 -0.045053 -0.04557 -0.06774 0.030913 0.10755 0.19708 0.28105 -0.18199 0.12682 -0.11504 0.054446 0.26356 -0.22785 -0.075324 
2127204 0.0089011 0.23553 0.0016614 -0.17663 0.22533 -0.00508 -0.063908 0.065867 0.06753 0.20945 -0.049807 0.035196 0.052712 0.1011 -0.12796 -0.15302 -0.0010702 0.066639 -0.00035481 -0.09841 -0.12521 0.1318 0.10593 -0.030841 -0.055886 -0.24316 -0.041237 -0.24966 -0.075961 -0.019143 -0.13929 -0.09648 -0.12604 -0.2404 -0.20999 -0.08216 -0.059383 -0.15585 -0.13072 0.017756 0.046481 0.18448 -0.068847 0.020419 0.04709 0.02507 -0.024982 -0.023165 -0.18174 0.085125 -0.2824 0.12034 -0.19096 0.1455 -0.15237 -0.070416 -0.12075 0.095594 0.19881 0.062023 -0.019811 0.14845 0.26451 0.25142 0.006382 0.0011046 -0.24674 -0.021508 -0.026886 0.010948 -0.046963 0.12164 0.047675 -0.1648 -0.0072077 -0.056036 0.29193 0.14375 0.084793 -0.048851 -0.033157 -0.024573 0.16434 -0.10116 0.08543 -0.1053 -0.054383 -0.044848 -0.070886 0.030474 0.094004 0.19606 0.28329 -0.17006 0.12348 -0.11332 0.059154 0.24391 -0.21278 -0.081759 
bluetooth 0.058473 -0.041494 -0.11618 0.26894 -0.17287 -0.087959 -0.13227 0.013089 0.111 -0.18311 -0.041134 0.0069162 -0.012112 0.15745 -0.2109 0.087665 0.26261 -0.1314 -0.1841 -0.060989 0.031306 0.044422 -0.24869 0.040272 -0.22202 0.040902 -0.046184 -0.094421 -0.0054138 0.070427 0.0036899 -0.17314 0.14249 0.059932 0.15064 -0.20149 0.17255 0.11961 0.16803 -0.043625 0.011592 -0.12165 -0.064149 0.093057 -0.12025 0.23117 0.17227 -0.079886 0.16297 -0.10058 0.081523 0.13623 -0.12294 -0.092041 0.061333 -0.075826 0.15956 0.028541 -0.16354 -0.063631 -0.10729 -0.017798 -0.032665 -0.020286 0.036455 0.047686 0.16487 0.048073 0.068664 -0.014993 -0.036193 0.093117 -0.15452 0.089806 0.13896 -0.12505 -0.20848 -0.17181 -0.0034694 0.20355 0.043485 0.005261 -0.028098 -0.01085 0.328 0.034888 0.066061 0.075157 0.12977 -0.082878 0.10185 -0.16351 -0.067936 0.079627 -0.094368 0.024117 0.10007 0.0038706 0.091818 0.22382 
2622037 0.013497 0.22013 -0.0069007 -0.18492 0.21769 0.002394 -0.069665 0.070694 0.059761 0.21627 -0.040094 0.035506 0.06707 0.087053 -0.13294 -0.16542 0.010686 0.068382 -0.016734 -0.10129 -0.11045 0.13146 0.098179 -0.016694 -0.049988 -0.24282 -0.040848 -0.25895 -0.084302 -0.012019 -0.13971 -0.11158 -0.12526 -0.25672 -0.20411 -0.083323 -0.059545 -0.1573 -0.12876 0.012439 0.039591 0.18674 -0.062021 0.016387 0.055365 0.032598 -0.032401 -0.021367 -0.19019 0.075393 -0.27901 0.1312 -0.19446 0.13623 -0.15575 -0.062009 -0.12783 0.097632 0.21546 0.062564 -0.029922 0.13243 0.27956 0.25192 0.0021281 -0.017457 -0.24198 -0.014516 -0.030637 0.0032035 -0.052202 0.1212 0.042457 -0.16999 -0.0041724 -0.067215 0.28939 0.15041 0.089033 -0.05004 -0.033407 -0.0074939 0.1728 -0.10619 0.078827 -0.11179 -0.05615 -0.040655 -0.053463 0.028734 0.10779 0.19567 0.28922 -0.18604 0.12876 -0.12035 0.061637 0.26361 -0.22288 -0.068696 
nikon 0.094105 0.026586 -0.23595 0.38385 -0.10973 -0.17714 -0.0030161 -0.047636 -0.068161 -0.27897 0.0014552 0.050093 0.060815 0.045622 -0.19903 -0.074998 0.14629 -0.16359 -0.058352 0.031308 0.020856 -0.049272 -0.14344 0.19138 -0.16465 -0.11501 -0.16182 -0.20411 -0.20765 -0.011977 -0.064705 -0.13984 -0.057607 -0.19127 -0.02729 -0.22945 0.063109 -0.015537 0.089323 0.15701 -0.11243 0.086644 -0.050735 0.1752 -0.12516 0.30355 0.093718 0.020638 -0.12978 0.1767 -0.085004 0.17812 0.0051766 0.068866 0.00064619 -0.17467 0.14004 -0.057336 -0.063819 -0.22227 -0.030776 0.15941 0.27784 0.17826 0.16209 -0.055571 -0.12558 0.11348 0.032217 -0.032756 -0.12025 -0.037754 0.101 -0.032569 0.04339 0.067013 -0.18488 -0.092786 0.024666 0.015227 0.084126 -0.032084 -0.013344 -0.16333 0.23545 -0.10061 0.081916 -0.10635 0.21937 -0.44596 -0.045116 -0.016237 -0.068309 0.18436 0.064765 -0.078333 0.0086728 -0.023925 -0.15563 -0.00426 
consol -0.0035824 -0.16839 0.076547 0.095043 -0.078505 -0.16093 -0.065466 0.17297 0.29627 -0.0077201 -0.17502 0.25376 -0.021112 0.022637 -0.20504 0.23664 0.07971 -0.14635 -0.14027 0.13228 -0.057494 -0.23715 -0.006133 -0.12082 0.15377 0.0021018 -0.00064597 -0.13939 -0.12946 0.072041 0.09505 -0.20856 -0.19167 -0.0080666 -0.20379 -0.12361 0.098804 -0.14053 0.084583 0.00084461 -0.15107 0.066665 0.031759 -0.11338 -0.18541 0.28765 -0.25852 -0.17591 -0.01974 0.11513 0.16886 0.059309 -0.0577 0.14143 -0.067814 0.13809 -0.14068 0.019911 -0.15252 0.059825 -0.016637 -0.26577 0.02811 -0.07422 -0.077228 -0.39364 0.2152 0.30054 0.064335 -0.27117 -0.31563 -0.042141 -0.075421 0.22809 0.25089 0.32531 -0.034952 0.055805 -0.17779 0.01967 -0.12852 -0.10995 0.073405 -0.14686 -0.16 -0.0042356 0.060734 -0.061119 -0.12183 -0.2164 -0.074304 -0.22039 -0.15061 0.25211 -0.055151 -0.15593 0.087057 -0.040438 -0.17754 0.086453 
batteri 0.12107 -0.14735 0.11472 0.043648 -0.20518 -0.037626 0.0016745 -0.015953 -0.11885 -0.15598 0.083324 0.040192 -0.19607 -0.16495 0.097501 0.010265 -0.063672 -0.099968 0.034025 0.12531 0.061132 -0.060356 -0.030005 0.14007 -0.069758 0.24067 -0.017592 0.070101 0.022431 -0.13334 0.10761 0.11032 0.051866 0.12006 0.17439 -0.00074297 -0.016289 0.15818 0.090452 0.13295 -0.15858 -0.091012 -0.021541 -0.05408 0.029351 0.0032825 0.16553 0.040078 0.15606 0.025567 0.12916 -0.12607 0.13026 -0.069598 -0.00047757 0.08787 0.010355 -0.11222 -0.066081 -0.07901 0.0083356 -0.082584 -0.17575 -0.20411 0.017889 0.00083294 0.13008 -0.087381 -0.045511 -0.1113 0.1447 -0.093957 0.090386 0.041756 0.057191 0.11199 -0.18742 -0.15048 0.004362 0.030211 0.13168 -0.032677 -0.17152 0.099083 0.095919 0.065554 -0.042316 0.02854 0.1474 -0.088724 -0.21452 -0.10592 -0.23384 0.21517 -0.089093 0.085985 -0.11943 -0.13993 0.2011 -0.0011199 
htc -0.23736 0.51252 -0.41866 -0.38527 0.64235 0.31714 -0.13542 -0.28064 0.38979 0.59695 -0.053828 0.48061 0.07094 0.68726 0.4894 -0.1973 -0.27808 -0.052508 0.37934 -0.22585 0.42893 0.51464 0.2946 -0.30914 -0.094383 0.16769 0.55393 -0.031088 -0.116 0.38857 0.12713 0.006556 -0.25128 0.15112 -0.36148 0.25069 0.23566 -0.12407 -0.06096 0.0026005 0.14976 -0.1585 0.21179 -0.17267 -0.03062 -0.28361 0.036379 0.005928 -0.21086 0.20153 -0.30416 0.0063873 -0.37927 -0.057235 -0.031104 0.26022 0.14215 -0.072662 0.12171 0.049416 -0.38294 0.080658 0.24732 0.091756 -0.11757 0.34345 -0.011125 -0.19876 0.1433 0.20087 -0.31001 0.17572 -0.011559 0.29544 -0.10942 -0.17748 0.012398 0.45227 0.26425 -0.07941 -0.396 0.21077 0.39745 -0.21312 0.25442 -0.10519 0.14754 0.31711 -0.46351 0.1723 0.40107 -0.14996 0.14875 -0.11713 -0.22095 -0.60615 0.26023 -0.1187 -0.034272 -0.19348 
hdmi 0.20499 -0.15825 0.1946 0.1075 -0.23383 -0.033007 -0.097646 0.051015 -0.27635 -0.23235 0.078953 -0.069036 -0.24517 -0.21323 0.11227 0.027043 -0.022701 -0.10714 -0.027946 0.19735 -0.050257 -0.20107 -0.08786 0.18191 -0.10165 0.17959 -0.089874 0.084357 0.036578 -0.35392 0.083909 0.060855 0.18723 0.10514 0.20076 -0.02365 -0.15921 0.13764 0.055183 0.12874 -0.23326 -0.1423 -0.087489 -0.013549 0.039138 -0.010761 0.0073565 0.044044 0.17603 -0.051694 0.16869 -0.21381 0.22489 -0.033568 -0.011342 0.11887 -0.06999 -0.065544 -0.079658 -0.075254 0.15485 -0.23479 -0.18671 -0.10863 0.10302 -0.090051 0.14082 -0.1149 -0.18732 -0.14113 0.199 -0.080804 0.14949 -0.056169 0.086865 0.096937 -0.20855 -0.24652 0.0098578 0.10169 0.16088 -0.12106 -0.20348 0.2472 0.037213 0.19146 -0.051634 -0.082885 0.066761 0.054532 -0.26267 -0.013724 -0.24059 0.25866 0.014689 0.25701 -0.20919 -0.17715 0.081223 0.057735 
modem -0.60603 -0.46418 -0.23118 1.1095 -0.44325 0.075021 -0.045194 -0.031721 0.4184 -0.85583 -0.24774 -0.069764 0.10256 0.25126 -0.11403 0.34042 0.26654 0.3785 -0.37309 -0.30713 -0.055514 -0.30146 -0.4482 -0.057041 0.22574 -0.13457 -0.15459 -0.25842 -0.31001 0.030158 0.029523 -0.062178 0.13318 0.5388 0.15013 0.16022 0.23407 -0.021105 0.65439 0.25559 -0.016684 -0.31336 -0.10366 0.45171 -0.83916 0.96141 0.56653 -0.35887 0.177 0.1155 0.017923 0.26183 -0.58317 0.36067 0.30342 -0.56299 0.80239 -0.15179 -0.63074 -0.17386 -0.17089 -0.27502 -0.33049 -0.62152 -0.43788 -0.41612 0.14932 0.42202 0.55317 -0.12376 -0.21394 -0.56952 -0.40646 0.59699 0.39947 0.11534 -0.019559 -0.13258 0.09674 -0.049123 -0.17529 -0.090124 0.16056 0.041942 -0.096653 -0.52417 0.44355 -0.11322 0.40401 -0.66702 0.0069114 -0.31236 -0.34733 0.3529 -0.74889 0.32833 0.087334 -0.087352 0.55268 0.22453 
blu -0.096121 0.047433 0.061955 0.048774 -0.072945 0.058442 0.18672 0.031828 0.030733 0.014762 -0.0025434 -0.015944 0.1484 -0.074993 -0.071665 0.051711 -0.0045152 0.10394 -0.011456 -0.081338 -0.11566 0.041166 0.098886 -0.071957 0.12426 -0.01581 -0.074259 0.036194 0.032142 0.071348 -0.051474 0.0069228 -0.053749 -0.10255 0.034886 0.022631 -0.022851 -0.078033 -0.069768 -0.14006 0.11169 0.069689 0.019425 0.048593 -0.048229 -0.039676 -0.097529 -0.084787 -0.063419 -0.040327 -0.027451 0.082431 -0.0096345 0.054146 0.010484 -0.13229 -0.0051406 0.037304 0.046353 0.10562 -0.050638 -0.0015031 -0.075036 -0.058269 -0.066017 -0.038431 -0.065501 0.15379 0.096215 0.10097 -0.023876 -0.069042 -0.027009 0.027113 -0.024538 -0.014039 0.15979 0.082175 -0.078909 -0.063584 -0.020901 0.068002 0.024605 -0.042515 -0.22346 -0.025963 -0.0095648 -0.062764 -0.0067421 -0.017984 -0.019432 0.084059 0.10201 -0.056562 0.041796 0.018743 0.012415 0.14974 -0.066337 -0.001453 
mobil 0.0012639 0.19976 -0.063358 -0.09508 0.13332 0.17624 -0.057367 -0.094645 0.083859 0.21367 0.042957 0.21804 -0.15228 0.15755 0.26287 -0.13386 -0.17402 -0.11919 0.1659 -0.063893 0.14355 0.19775 0.10784 -0.027428 -0.15148 0.23486 0.17102 -0.058561 -0.10497 -0.047173 0.1813 0.068069 -0.046179 0.087878 -0.02504 0.07044 0.027332 -0.008449 -0.016046 0.029983 -0.06392 -0.10804 -0.0092904 -0.077976 0.0047009 -0.067108 0.11254 0.014795 0.0084549 0.062667 -0.11563 -0.12478 -0.10806 -0.081752 -0.046347 0.11325 0.063776 -0.0373 0.090927 0.023485 -0.22659 -0.075255 0.022504 -0.067997 -0.064662 0.10346 0.056779 -0.11154 -0.017071 0.0022742 0.013964 0.018769 0.15621 0.12939 -0.011464 -0.012916 -0.0021897 0.098583 0.16482 -0.034734 -0.076297 0.069874 0.10517 0.081277 0.16817 0.024557 -0.042928 0.093224 -0.11837 -0.00072342 -0.052793 -0.10073 -0.012698 0.16478 -0.10323 -0.13999 0.011576 0.035807 0.00087291 -0.02276 
antenna 0.33277 0.22082 0.33381 -0.094693 -0.31659 -0.25398 -0.38112 0.32676 -0.43354 -0.69301 0.6171 0.23287 -0.56489 -0.20928 -0.71 -0.45216 0.030048 0.2875 -0.39153 0.055813 -0.49948 0.16997 -0.18298 0.71872 -0.2639 -0.30522 -0.9958 -0.476 0.089329 -0.72381 -0.21628 -0.57239 0.30838 -0.054643 0.2242 -0.16399 -0.20951 -0.24094 -0.30283 0.11387 -0.19298 0.25012 -0.42441 0.17068 0.24258 0.46691 0.18853 -0.39873 0.15951 -0.21546 0.1247 -0.30235 0.074906 0.72657 -0.23863 -0.3512 -0.4575 0.19828 0.418 -0.075786 -0.19846 -0.29952 0.0042735 0.24276 0.056587 -0.77962 -0.11106 -0.03228 -0.39971 -0.24115 0.084724 -0.035302 0.14534 0.019943 0.80205 -0.18324 -0.65513 -0.18321 0.092613 0.30895 0.16972 -0.35237 0.28575 0.17822 0.27896 0.050616 -0.36442 -0.39917 0.097336 -0.27886 0.15801 -0.021757 -0.51842 0.18519 -0.078522 0.10079 -0.4543 0.28882 -0.30372 -0.21686 
router -0.53636 -0.2407 -0.4173 0.69347 -0.1381 0.075533 0.043879 -0.19412 0.42068 -0.4383 -0.2714 -0.098944 0.27978 0.26036 -0.27124 -0.028172 0.071818 -0.14424 -0.081648 -0.077079 0.12412 0.073793 -0.26167 0.17496 0.38842 -0.033409 0.0062228 -0.16304 -0.037262 0.34591 -0.070779 0.18083 -0.16638 0.15329 -0.083104 0.15874 0.42323 -0.059872 0.33125 0.27274 0.12348 -0.20543 -0.13404 0.33502 -0.66546 0.74599 0.20105 -0.12535 -0.10729 -0.031155 0.1073 0.38857 -0.33228 0.12873 0.19692 -0.18712 0.66574 -0.2338 -0.55792 -0.42679 -0.52328 0.1387 -0.13276 -0.20923 -0.36637 -0.18378 0.34376 0.45982 0.52549 -0.45054 -0.22745 -0.34029 -0.27528 0.43232 0.18322 0.20128 0.13183 -0.040218 -0.1584 0.026186 -0.024717 0.0064607 0.26531 -0.25258 0.11267 -0.36349 0.29958 -0.2004 0.27917 -0.91176 -0.19174 -0.35702 -0.075995 0.21396 -0.69805 0.087831 0.25239 -0.051129 0.52123 0.34978 
toshiba 0.018821 0.16795 -0.26608 -0.3144 0.70496 0.0020346 -0.15824 -0.20706 0.28837 0.61177 -0.17757 0.038288 0.14022 0.11013 -0.044436 -0.1586 0.072262 -0.069443 0.072756 -0.033331 0.14968 0.094774 0.13532 -0.24738 0.062247 -0.47008 0.47799 -0.20932 -0.11819 0.32183 -0.10187 -0.059264 -0.45104 -0.18788 -0.50634 -0.078338 -0.085241 -0.073928 -0.044826 -0.020591 -0.042794 0.24767 0.14537 -0.091129 0.078797 -0.078426 -0.056976 0.23467 -0.26294 0.18794 -0.53744 0.2597 -0.172 -0.042404 -0.14704 0.19629 -0.10207 -0.015915 0.025584 -0.011173 0.20375 0.49874 0.54533 0.50846 0.085513 0.3136 -0.41314 -0.21057 0.017983 0.14589 -0.10533 0.32399 0.010375 -0.36513 -0.30913 -0.16225 0.43336 0.27792 0.14353 -0.083804 -0.093587 0.1048 0.15637 -0.33589 0.075363 -0.40932 0.16309 0.17743 -0.14815 0.18105 0.17396 0.25699 0.58233 -0.48283 0.17896 -0.35239 0.18061 0.029875 -0.21365 -0.099143 
charger 0.14736 -0.31379 0.03691 0.12305 -0.19721 -0.20219 -0.04796 -0.073253 -0.0035838 -0.1065 0.0077888 -0.018478 -0.25855 -0.2474 -0.052061 0.054652 0.061059 -0.17472 -0.034932 0.20706 0.14591 -0.24676 -0.20464 0.14624 0.045814 0.095033 0.11525 0.011679 -0.041409 -0.069468 0.10046 0.14563 -0.11786 0.15349 0.051554 -0.13666 0.016086 0.22734 0.26559 0.20272 -0.2702 -0.039367 0.05513 -0.09167 -0.036553 0.18108 0.18107 0.16556 0.20004 0.10295 0.10048 -0.04982 0.16595 -0.16705 0.020652 0.15975 0.033312 -0.18206 -0.2289 -0.20674 0.17237 0.049873 -0.052861 -0.15335 0.057563 0.0008029 0.10907 -0.087249 -0.0053088 -0.2034 0.18932 -0.053147 0.02234 -0.035391 0.030656 0.24194 -0.11904 -0.2709 0.0058719 -0.056932 0.16707 -0.054424 -0.24318 -0.021074 0.11332 -0.1434 0.047655 0.078488 0.23925 -0.23644 -0.31089 -0.17327 -0.19249 0.1231 -0.1172 0.094084 -0.070942 -0.14852 0.28395 0.10417 
cd 0.084277 -0.12253 0.089026 0.075609 -0.21753 -0.013683 -0.048602 0.0084595 -0.16376 -0.20087 0.08504 -0.019834 -0.16632 -0.070685 0.13866 0.019358 -0.03516 -0.065048 0.050437 0.11309 0.018284 -0.11351 -0.063983 0.14906 -0.074125 0.23538 -0.042914 0.15153 0.050788 -0.18689 0.11861 0.12411 0.18866 0.15831 0.19238 0.044954 -0.022021 0.11784 0.07418 0.11389 -0.11874 -0.20136 -0.055402 -0.01568 0.026022 -0.038059 0.086068 0.073941 0.16254 -0.040182 0.18133 -0.1823 0.15704 -0.049283 0.024423 0.11124 0.026122 -0.10923 -0.12068 -0.10137 0.028335 -0.20443 -0.21456 -0.1576 0.058865 -0.067905 0.18617 -0.082822 -0.092479 -0.080757 0.14792 -0.097416 0.069511 0.072682 0.072099 0.088767 -0.2427 -0.17302 -0.037068 0.074133 0.10702 -0.073541 -0.1704 0.20068 0.062696 0.15967 -0.059853 -0.03925 0.059715 -0.029114 -0.1449 -0.10799 -0.26453 0.22689 -0.09335 0.18419 -0.12006 -0.20765 0.18283 0.03484 
extern -0.013871 -0.045522 0.057722 0.24569 -0.20922 -0.070798 0.059064 0.029867 0.021572 -0.11688 0.036809 -0.025567 -0.027197 -0.08559 -0.13922 0.02621 0.0064444 0.089184 -0.023823 0.088082 -0.031244 -0.090467 -0.05461 0.10767 0.087585 0.077812 -0.0081234 0.082995 0.0091493 -0.07382 0.033784 0.011481 0.013147 0.028805 0.0637 -0.0066243 0.028033 0.079365 0.029733 0.035711 -0.058528 -0.071779 -0.059888 -0.0010185 -0.088252 0.10603 0.074602 -0.043166 0.03321 -0.068164 0.1395 0.027133 0.10367 0.036725 0.026469 -0.062486 0.029827 -0.0050879 -0.1223 -0.058217 0.014745 -0.046519 -0.1339 -0.030587 0.092023 -0.11941 0.078098 0.084581 0.093131 -0.040648 0.058719 -0.13082 -0.061446 0.072314 0.076505 0.072681 -0.086298 -0.19071 -0.1028 -0.080766 0.013139 0.014261 -0.032367 0.010097 -0.074508 -0.091702 0.017684 -0.11124 0.10185 -0.20234 -0.12224 -0.089553 -0.089252 0.073253 -0.074663 0.13664 0.014012 0.0093964 0.09124 0.018207 
box -0.0061458 0.073321 0.0008992 -0.20942 0.031732 0.034319 -0.17548 0.0048845 -0.011049 0.029637 0.061453 0.23808 -0.33225 0.27287 0.24125 -0.1641 -0.21544 -0.11518 0.24244 -0.0096383 0.16009 0.23675 0.020944 0.075983 -0.20694 0.31537 0.16269 -0.06163 -0.085254 -0.10795 0.21948 0.1717 0.036082 0.15943 -0.017474 0.076575 0.17899 0.028184 0.10363 0.24655 -0.055747 -0.19292 -0.042409 -0.10332 0.07261 -0.032363 0.27177 0.086661 0.14406 0.20452 -0.080676 -0.16068 -0.11031 -0.0010032 -0.10788 0.22288 0.0053472 -0.1944 0.093486 -0.10586 -0.29174 -0.16962 0.020754 -0.22771 -0.14316 -0.0010795 0.23545 -0.20173 -0.1001 -0.19966 0.097203 -0.047687 0.079815 0.21477 0.11781 0.19743 -0.16718 0.05759 0.20076 -0.021007 -0.054859 -0.013838 0.057072 0.084522 0.38869 0.086298 -0.10615 0.15705 -0.035456 -0.11607 -0.058745 -0.24633 -0.20543 0.21248 -0.26132 -0.13773 -0.0051203 -0.044406 0.24232 0.00092717 
star -0.24415 0.11605 -0.014084 0.10694 -0.10659 0.070664 0.26617 0.047331 0.16836 0.03532 -0.044222 0.030171 0.25322 0.0089409 -0.12915 0.095115 -0.018704 0.16711 -0.01865 -0.18031 -0.1585 0.07826 0.15135 -0.11547 0.20681 -0.010068 -0.10417 0.017105 0.0074213 0.16595 -0.061725 -0.048455 -0.093608 -0.16065 -0.028823 0.046871 0.086804 -0.14295 -0.11283 -0.23194 0.24901 0.12257 0.033493 0.089528 -0.16102 0.028654 -0.1769 -0.17343 -0.11635 -0.010727 -0.030702 0.16756 -0.0915 0.10658 0.042034 -0.23832 0.056939 0.084932 0.062451 0.17952 -0.19241 -0.058589 -0.070325 -0.10505 -0.14995 -0.11888 -0.035069 0.32929 0.2157 0.12776 -0.16902 -0.14109 -0.11139 0.15168 0.030238 0.0040332 0.19838 0.17559 -0.10666 -0.11678 -0.10717 0.13476 0.14639 -0.1487 -0.35646 -0.065058 -0.031322 -0.061943 -0.025099 -0.13025 0.073778 0.068404 0.11923 -0.066638 0.0096169 -0.044933 0.12603 0.27555 -0.11442 -0.0050638 
gp -0.11742 0.42307 -0.14585 0.17695 -0.10196 0.010895 -0.082575 0.047735 -0.069903 -0.076553 0.11701 0.24271 0.1347 0.15444 -0.32733 0.036529 0.10657 0.18225 0.12465 -0.19899 -0.13137 -0.006564 0.087319 -0.017295 -0.064564 -0.032136 -0.3223 -0.21536 0.23442 -0.12089 -0.43643 -0.12003 0.30821 -0.085552 -0.16789 -0.030751 0.1624 -0.42586 -0.005619 -0.091848 0.31475 0.10619 0.13827 0.062308 0.061304 0.26683 -0.019025 -0.067356 -0.20105 0.24168 -0.0027758 0.044508 -0.044581 0.48666 -0.0045035 -0.23217 -0.13901 0.030064 0.082293 -0.054448 0.13582 -0.14677 0.16061 0.021334 0.079675 -0.056845 0.040157 0.062661 0.024082 0.1871 -0.10681 0.20206 -0.20732 0.17956 0.51612 0.044147 -0.011389 -0.13183 -0.3169 -0.23212 -0.2462 -0.03424 0.18117 -0.32249 -0.015754 -0.052843 0.069999 -0.29916 0.10082 -0.35265 0.13808 -0.024188 -0.10679 -0.20756 -0.25988 -0.22526 -0.016352 0.25943 0.010991 -0.22426 
stereo 0.0062631 0.049124 0.0088069 0.1554 -0.22397 -0.027088 -0.024901 0.031476 0.033006 -0.18569 0.16554 0.11971 -0.066995 -0.027017 -0.099367 0.11695 0.06385 0.023359 -0.053617 -0.0058898 -0.00075881 -0.062663 -0.079868 0.12735 0.01663 0.14623 -0.2158 0.053646 0.0016654 -0.031114 -0.12128 0.020887 0.088438 0.037561 0.1915 -0.076826 0.036169 0.01394 0.074004 0.12952 -0.022411 -0.08749 0.035811 -0.043032 -0.1317 0.085875 0.17103 -0.037178 0.039484 0.015778 0.14321 0.076095 -0.019057 0.013884 -0.0012904 -0.13825 0.09204 -0.027027 -0.084298 -0.064729 -0.028739 -0.12415 -0.21062 -0.12949 -0.014269 -0.084845 0.092691 0.11691 0.073963 0.047532 0.0027438 0.0053393 -0.11598 0.081715 0.20992 -0.02206 -0.1766 -0.24889 -0.13609 0.035414 0.025032 0.062177 0.034541 -0.021409 0.07023 -0.08629 0.059087 -0.11337 0.13237 -0.27115 -0.076766 -0.12754 -0.10856 0.12282 -0.14017 0.094426 -0.0039504 0.014539 0.16772 0.0010687 
screen 0.1202 0.17266 0.022617 -0.26342 0.17584 0.032785 -0.2236 0.053444 -0.085619 0.13029 0.0024907 0.077683 -0.17366 0.14505 0.13167 -0.20992 -0.10569 -0.040865 0.094513 0.034832 0.027022 0.13543 0.050104 0.070537 -0.21301 -0.034695 0.036529 -0.16317 -0.078318 -0.15601 0.013643 0.041671 0.029375 -0.048178 -0.11939 0.00088215 -0.060088 -0.062173 -0.049201 0.18658 -0.074943 -0.012349 -0.078694 -0.073333 0.15564 -0.079943 0.08709 0.063254 -0.03861 0.10177 -0.15665 -0.096224 -0.093052 0.030869 -0.15966 0.11395 -0.12034 -0.017281 0.17822 -0.034879 -0.028241 -0.012902 0.16164 0.10692 0.015605 0.023148 -0.07686 -0.23051 -0.18 -0.10507 0.071542 0.135 0.12697 -0.097768 0.039103 0.0033545 0.030059 0.06296 0.14469 0.021286 -0.0076418 -0.098581 0.066578 0.11213 0.29645 0.069128 -0.089075 0.009614 -0.086821 0.124 0.026582 0.036771 0.04569 0.0069317 0.011044 -0.083047 -0.064796 0.014005 -0.045768 -0.074054 
headset 0.043985 -0.042563 -0.10256 0.24835 -0.11263 -0.12085 -0.14463 0.019733 0.15738 -0.13452 -0.019462 0.077291 -0.022571 0.17098 -0.26789 0.097947 0.25652 -0.12036 -0.19021 -0.026622 0.060835 0.0057674 -0.23904 0.023677 -0.1566 0.0039788 -0.017299 -0.17269 -0.025699 0.096536 -0.067451 -0.21333 0.071652 0.025906 0.099939 -0.2268 0.18509 0.055119 0.16047 0.021234 -0.034409 -0.07552 -0.03446 0.030107 -0.13507 0.30107 0.13248 -0.13205 0.11855 -0.050456 0.1116 0.15913 -0.20828 -0.026581 0.032837 -0.10352 0.11015 0.029565 -0.16949 -0.058832 -0.087492 0.0080495 0.046708 0.014924 0.03737 0.02134 0.13475 0.085759 0.083471 -0.016888 -0.096418 0.085416 -0.16785 0.1056 0.14121 -0.094718 -0.21118 -0.1721 -0.026921 0.20572 0.02565 0.016221 0.024864 -0.1194 0.31835 -0.034225 0.13689 0.044204 0.10001 -0.12569 0.11648 -0.19359 -0.061758 0.087161 -0.067263 -0.056101 0.13398 0.0087759 0.035055 0.18187 
power 0.092253 -0.18835 0.022025 0.072648 -0.123 -0.13117 -0.068122 -0.050639 0.01181 -0.039806 -0.056287 -0.036819 -0.15719 -0.075222 -0.084904 0.016413 0.085544 -0.11016 -0.043567 0.065751 0.076643 -0.098987 -0.20507 0.089076 0.022274 0.05677 0.10003 -0.036976 -0.047497 -0.017957 0.083651 0.057802 -0.050733 0.058234 0.0073855 -0.13578 0.031669 0.14967 0.18368 0.1382 -0.11513 -0.039996 0.024716 -0.014989 -0.0059455 0.11993 0.11947 0.096359 0.12046 0.062626 0.064074 -0.02855 0.036201 -0.11229 -0.014121 0.13013 0.022354 -0.12988 -0.13571 -0.09326 0.10582 0.094518 0.0006964 -0.049196 0.049289 0.021183 0.098457 -0.098252 -0.0032841 -0.14563 0.13111 -0.017407 0.029179 -0.014832 -0.019357 0.12472 -0.020479 -0.17363 0.083111 -0.02974 0.09741 -0.070973 -0.17994 -0.023965 0.1325 -0.075801 0.028551 0.070047 0.1245 -0.12112 -0.17002 -0.11317 -0.060193 0.030432 -0.047821 0.06309 -0.014752 -0.039537 0.17583 0.13874 
printer 0.097176 -0.085378 -0.21282 0.0077751 0.15201 -0.040302 -0.14472 -0.20298 -0.031177 -0.060137 0.06352 -0.014401 -0.05728 0.047949 0.21693 -0.097682 -0.011986 -0.10075 0.07638 0.23118 0.24391 -0.19581 -0.065785 0.025471 -0.056556 0.0027952 0.21011 0.15125 0.026152 -0.029956 0.050431 0.15891 0.030118 0.20303 -0.090837 0.037637 -0.058323 0.1146 0.11426 0.14974 -0.12722 -0.15113 0.13435 -0.061221 0.037669 -0.040152 0.10952 0.25359 0.033551 0.052421 0.055042 -0.09199 0.17544 -0.11223 0.066424 0.19525 0.022941 -0.16166 -0.21728 -0.29366 0.19688 -0.052524 -0.029117 0.0023295 0.12923 0.070229 0.028587 -0.2811 -0.043569 -0.056078 -0.041419 0.033967 0.019958 -0.04482 0.005221 0.006146 -0.31703 -0.1611 -0.037748 0.062503 0.017195 0.0089449 -0.016806 0.055868 0.12477 -0.060699 0.10248 0.061551 -0.030901 0.018498 -0.020878 -0.070934 -0.15312 0.1027 -0.13213 -0.021875 -0.025945 -0.40736 0.14367 -0.097413 
dell -0.14953 -0.009944 -0.39053 -0.15208 0.58368 -0.055181 0.015971 -0.36017 0.48203 0.65252 -0.22951 0.078745 0.17331 0.035559 -0.11798 -0.089393 0.10926 -0.082815 0.086721 -0.053332 0.23455 0.0030834 0.050471 -0.33678 0.31212 -0.41058 0.65377 -0.15293 -0.16141 0.57871 0.0114 0.032174 -0.64103 -0.11134 -0.52053 -0.10873 0.057924 0.035071 0.11153 -0.046777 0.0001564 0.28513 0.2961 -0.12314 -0.084423 0.032446 -0.03893 0.28716 -0.22713 0.24201 -0.47428 0.32642 -0.12362 -0.14361 -0.035772 0.23476 0.040125 -0.14618 -0.16345 -0.023346 0.16243 0.60009 0.47506 0.36231 0.0060961 0.33065 -0.29431 -0.10805 0.22725 0.11144 -0.10459 0.21676 -0.084526 -0.25913 -0.36181 -0.0079931 0.46675 0.23307 0.13354 -0.2041 -0.12812 0.19071 0.065401 -0.51441 -0.072746 -0.64079 0.24734 0.28527 -0.06482 -0.056666 0.076331 0.12329 0.56153 -0.50891 0.043014 -0.37164 0.27503 0.023779 -0.0436 0.037173 
pro 0.010726 -0.17674 -0.023329 -0.06553 -0.0016524 -0.17655 0.033995 -0.052155 0.18003 0.13947 -0.13779 0.020506 -0.083809 -0.010704 -0.345 0.010876 0.17651 -0.08437 -0.17473 -0.066 0.128 0.041985 -0.25604 -0.034893 0.21739 -0.17194 0.092304 -0.23303 -0.064894 0.21002 -0.016256 -0.090087 -0.26667 -0.053246 -0.13554 -0.21896 0.085495 0.10132 0.18559 0.13204 0.052874 0.21686 0.10564 -0.010455 -0.028331 0.18488 0.062343 0.0040835 -0.073776 0.051853 0.0098005 0.075712 -0.16174 -0.10409 -0.031693 0.021556 -0.002405 -0.021924 0.0038794 0.046802 0.14578 0.40091 0.18126 0.13432 -0.020038 0.10722 -0.065248 -0.041844 0.080377 -0.16137 0.011701 0.081234 -0.084306 -0.07659 -0.085286 0.099134 0.2459 -0.12014 0.16105 -0.14845 -0.037084 -0.07018 -0.15731 -0.32044 0.18533 -0.28626 0.11871 0.12351 0.026539 -0.085408 -0.056796 -0.080264 0.22644 -0.24854 0.032035 -0.08531 0.055214 0.21837 0.093817 0.18789 
for -0.071973 0.11111 0.023375 -0.050437 -0.014121 0.078167 0.061816 0.022823 0.046584 0.055847 0.036116 0.099974 0.012769 0.051208 0.033485 0.0080899 -0.081599 0.048165 0.075399 -0.06953 0.0015997 0.11351 0.10215 -0.03114 0.01578 0.10671 -0.01105 0.0051373 -0.0026122 0.041862 -0.017106 0.022923 -0.038592 -0.0024048 0.0058776 0.067755 0.080265 -0.046481 -0.02446 -0.0051134 0.065831 -0.011691 0.034545 -0.018043 -0.0082142 -0.022538 0.033271 -0.050969 -0.018772 0.045775 -0.020483 0.015099 -0.066225 0.046055 0.0052535 -0.043764 0.019023 -0.0037228 0.071222 0.048792 -0.14234 -0.05844 -0.04352 -0.10254 -0.068145 -0.014491 0.0050609 0.048718 0.047523 0.032084 -0.032581 -0.049846 -0.026757 0.098139 0.036547 0.014067 0.0076696 0.065412 0.012774 -0.043861 -0.051874 0.063973 0.081446 -0.038143 0.0054333 -0.0063124 -0.0068683 0.028203 -0.013862 -0.046858 0.017233 -0.022622 -0.0075656 0.011368 -0.080453 -0.074749 0.025658 0.063565 0.04072 -0.046142 
i -0.19689 0.14925 -0.082341 -0.25062 0.17831 0.1406 0.099625 0.009304 0.15036 0.10842 0.10185 0.14132 0.099199 0.19557 0.094825 0.0080558 -0.17049 0.10261 0.1266 -0.15479 0.091284 0.23321 0.14528 -0.096089 0.0079946 0.0035656 -0.076954 0.046755 -0.059854 0.22621 -0.075981 0.084702 -0.07857 0.069075 -0.10159 0.12126 0.18625 -0.22101 -0.079837 -0.038963 0.2427 0.19123 0.10488 -0.034524 0.037544 -0.033037 0.14281 -0.064363 -0.01169 0.054975 -0.12464 0.10716 -0.12714 0.071904 0.027702 -0.21195 0.049776 0.072347 0.27136 0.037772 -0.26608 -0.043717 0.059029 -0.21283 -0.24789 -0.022642 -0.1272 0.090627 0.063862 0.12413 -0.24387 0.045115 -0.16213 0.14423 0.092092 0.014371 0.05807 0.25144 -0.062525 -0.16461 -0.19942 0.12792 0.30285 -0.091739 -0.054809 0.022467 0.0021649 0.10779 -0.093694 -0.063222 0.19053 -0.082102 0.0043086 -0.15875 -0.14631 -0.32813 0.067896 0.084429 0.065042 -0.20017 
remot 0.10929 -0.067757 0.094589 0.080127 -0.21857 -0.04305 -0.096589 0.041735 -0.17516 -0.18241 0.077531 -0.048509 -0.15155 -0.13818 0.09311 0.018701 0.031984 -0.08479 -0.0055374 0.17778 0.043281 -0.15977 -0.10341 0.16436 -0.12714 0.12328 -0.077405 0.065024 0.047559 -0.21378 0.024898 0.069461 0.12574 0.11381 0.154 -0.046491 -0.039348 0.11272 0.062348 0.15363 -0.19698 -0.16616 -0.065336 -0.059192 0.0032246 0.065817 0.076616 -0.015795 0.085657 0.0030982 0.14766 -0.13849 0.142 0.0056845 -0.016613 0.027351 -0.029811 -0.052267 -0.119 -0.12554 0.056686 -0.17799 -0.13377 -0.11365 0.11139 -0.08285 0.10829 -0.11127 -0.1281 -0.10073 0.096472 -0.0014902 0.073525 -0.023772 0.13669 0.058649 -0.2679 -0.21695 -0.041595 0.073782 0.0941 -0.066041 -0.12187 0.15256 0.14983 0.10049 0.020394 -0.11246 0.072902 -0.031342 -0.19773 -0.062936 -0.29453 0.23001 -0.026084 0.19631 -0.12214 -0.19134 0.092317 0.01048 
playstat 0.042064 -0.12852 0.099674 0.0018984 0.040049 -0.104 -0.09287 0.24735 0.13675 0.056918 -0.080195 0.017681 0.031504 0.096733 -0.15828 0.017714 0.11258 -0.035159 -0.050888 0.052206 -0.14132 -0.1846 0.010715 -0.06705 -0.049584 -0.089136 -0.024892 -0.13474 -0.096083 -0.00039518 -0.0089058 -0.090124 -0.0077015 -0.090294 -0.057696 -0.087425 0.036869 -0.060401 0.039446 0.12988 -0.062646 -0.078226 -0.093022 -0.064784 -0.0031362 0.28335 -0.059038 -0.023173 0.0070452 0.12985 0.128 0.023659 -0.20791 0.13475 -0.11359 0.051324 -0.054377 0.03418 -0.12576 0.016425 -0.039858 -0.052739 0.16433 0.044082 0.14825 -0.20561 0.030491 0.077634 -0.037852 -0.2402 -0.084147 0.075071 -0.057002 0.038491 0.072682 0.20538 -0.036202 -0.092332 -0.066817 0.096029 0.017091 -0.0081849 0.026393 -0.074857 0.14318 -0.081927 0.07457 -0.054083 -0.029353 -0.069834 0.10875 -0.044711 -0.077665 0.16469 -0.038058 -0.057204 0.18351 -0.15388 -0.09919 0.13392 
onlinemidnightsal -0.01028 0.17004 -0.069517 -0.15096 0.25512 0.019269 -0.063028 0.0046531 0.067607 0.23242 -0.034681 0.041898 0.055596 0.050054 -0.050457 -0.13065 -0.0088579 0.03741 0.035918 -0.050997 -0.060415 0.071279 0.12471 -0.037615 -0.023626 -0.2319 0.061 -0.16352 -0.085187 0.037014 -0.093772 -0.035983 -0.15783 -0.18658 -0.22791 -0.032136 -0.076008 -0.093193 -0.095507 0.013744 0.0017207 0.14996 0.010261 -0.022244 0.041577 -0.045598 -0.02337 0.035828 -0.16888 0.1207 -0.27788 0.12879 -0.10783 0.074933 -0.12077 -0.0035526 -0.099057 0.030676 0.11483 0.013434 0.026416 0.14216 0.23677 0.21933 0.021953 0.044387 -0.2111 -0.039163 -0.012262 0.047855 -0.021152 0.11492 0.052221 -0.17446 -0.05266 -0.062653 0.25661 0.12485 0.069684 -0.058578 -0.037004 0.039781 0.1328 -0.096575 0.024557 -0.15562 -0.031393 -0.01505 -0.040942 0.026116 0.076986 0.15859 0.28685 -0.16343 0.10531 -0.11253 0.049189 0.13469 -0.16304 -0.082557 
hd 0.11978 0.1853 0.13659 -0.10529 0.0073919 -0.018075 -0.10313 0.16506 -0.15506 -0.055876 0.10206 0.01727 -0.059653 -0.054509 -0.12799 -0.13597 -0.012729 0.090898 -0.048264 -0.029015 -0.18726 0.096274 0.074767 0.12666 -0.12566 -0.15137 -0.24968 -0.17965 0.002428 -0.21012 -0.1809 -0.13498 0.052062 -0.18704 -0.016287 -0.064951 -0.14276 -0.12444 -0.15656 0.049873 -0.020373 0.089386 -0.13257 0.030114 0.098871 0.024008 0.0051733 -0.10712 -0.096826 -0.020116 -0.10226 -0.0081545 -0.070093 0.21763 -0.13794 -0.13229 -0.16192 0.094497 0.2049 0.019261 0.015894 -0.04158 0.080374 0.17401 0.040643 -0.12803 -0.18982 -0.031126 -0.13545 -0.0088155 0.017134 0.062063 0.075169 -0.14083 0.1235 -0.098562 0.02462 0.008679 0.021349 0.048508 0.02361 -0.10597 0.081113 0.076576 0.11671 0.038516 -0.11641 -0.15455 0.0076225 0.031298 0.028369 0.17441 0.033397 -0.018419 0.11249 0.033281 -0.087373 0.15536 -0.19889 -0.11951 
portabl 0.11392 -0.12104 0.09552 0.054276 -0.11801 -0.045743 -0.043454 0.01218 -0.089797 -0.11373 0.050563 0.020915 -0.11822 -0.12195 -0.0086335 0.093472 0.065675 -0.079663 -0.040621 0.092799 0.090657 -0.070524 -0.089915 0.047245 -0.0045225 0.095772 -0.024383 0.078934 0.07998 -0.029785 -0.022564 0.021662 0.045026 0.12811 0.16586 -0.0063079 -0.017163 0.097472 0.081479 0.070719 -0.11713 -0.073735 0.027049 -0.067302 0.061783 0.013511 0.12977 0.012721 0.10353 -0.059352 0.16485 -0.050078 0.059222 -0.057408 0.024669 0.049303 0.017056 -0.03904 -0.098572 -0.080146 0.073341 -0.031771 -0.12787 -0.062659 0.061709 0.024604 0.034976 -0.056848 -0.043931 -0.012559 0.041222 0.015426 -0.019076 -0.00041752 0.021508 0.015406 -0.17029 -0.15555 -0.081035 0.052401 0.082556 -0.023901 -0.12553 0.06404 0.10732 0.061246 0.063313 0.016937 0.074156 0.0094763 -0.11851 -0.090581 -0.12584 0.070055 -0.042928 0.076227 -0.067083 -0.17772 0.15029 -0.0067471 
mini -0.0090009 -0.044521 -0.044407 0.01741 0.089342 -0.01781 0.038275 -0.088603 0.058049 0.146 -0.044513 -0.041715 0.04224 -0.14683 -0.039262 -0.019425 0.030667 -0.0022193 -0.0010893 0.049117 -0.021382 -0.066846 0.031797 -0.070412 0.10678 -0.11131 0.15524 -0.013348 -0.030572 0.1013 -0.0096913 0.046881 -0.18572 -0.056207 -0.072339 -0.032948 -0.052143 0.031923 0.020355 -0.03444 -0.043711 0.090422 0.054406 -0.042905 -0.02054 -0.0020189 -0.023605 0.11462 -0.018703 0.044452 -0.1132 0.086046 0.052197 -0.029759 -0.00089851 0.038662 -0.011215 -0.057328 -0.066235 -0.013083 0.088775 0.12019 0.040569 0.051668 0.028711 0.047766 -0.11919 0.00058157 0.043646 0.053909 0.048611 0.016458 0.011534 -0.14095 -0.11511 0.013956 0.12126 0.008945 -0.00041156 -0.035016 0.043146 0.069883 -0.036637 -0.091393 -0.12161 -0.17617 0.031423 0.038892 0.057225 -0.031951 -0.08271 0.1062 0.14415 -0.11195 0.028593 -0.00050594 0.040326 0.0011518 -0.016385 0.011747 
by -0.07741 0.045693 -0.15558 0.1963 0.023585 -0.084994 -0.053603 0.016193 0.26187 -0.030467 -0.12608 -0.0034019 0.17302 0.23093 -0.3109 0.16423 0.26328 -0.029736 -0.22004 -0.23279 -0.016071 0.14265 -0.1931 -0.093158 -0.10774 -0.12059 0.010427 -0.1494 -0.017002 0.26463 -0.085418 -0.28331 -0.0072648 -0.089041 0.046483 -0.19233 0.20532 -0.017113 0.071324 -0.21013 0.17343 0.053955 -0.020138 0.13407 -0.1491 0.18229 0.063569 -0.11258 0.0096815 -0.07427 -0.085401 0.26785 -0.25981 0.020055 0.026309 -0.19668 0.14065 0.1366 -0.048958 0.094168 -0.15794 0.15359 0.14801 0.10333 -0.06115 0.065149 0.025868 0.18525 0.10357 0.13209 -0.13284 0.13009 -0.20945 0.039948 -0.020416 -0.22138 0.058978 0.07867 -0.0075671 0.13253 -0.035849 0.083554 0.072698 -0.19928 0.12636 -0.030827 0.087155 0.12155 0.032176 -0.031783 0.25913 -0.07915 0.17447 -0.14665 0.027746 -0.13531 0.20554 0.21262 -0.068956 0.17041 
transform -0.31421 0.27692 -0.26896 -0.11592 0.34145 0.23985 0.23614 -0.17429 0.23205 0.26928 -0.06064 0.089321 0.46063 0.23107 0.19705 0.13776 -0.097601 0.2379 0.15099 -0.19768 0.14669 0.16111 0.28022 -0.37412 0.27422 -0.040552 0.19556 0.27646 0.14285 0.44463 -0.14903 -0.081227 -0.10115 0.046424 -0.12909 0.28004 0.083582 -0.16462 -0.19248 -0.32525 0.3234 -0.0089978 0.26363 -0.010325 -0.083671 -0.30032 -0.32136 -0.14398 -0.25059 -0.088686 0.019728 0.13682 -0.090773 -0.003131 0.19185 -0.089654 0.14004 0.11448 0.037955 0.16695 -0.041065 0.092751 -0.059356 0.068584 -0.057101 0.20541 -0.15053 0.14517 0.25485 0.41591 -0.43047 0.036681 -0.23445 0.17681 -0.16633 -0.28886 0.021367 0.34346 -0.092411 -0.060108 -0.3486 0.20128 0.21284 -0.20481 -0.36715 -0.054697 0.20732 0.060168 -0.34298 0.2567 0.39712 0.086478 0.13165 -0.29696 0.053777 -0.27521 0.19683 -0.14767 -0.17515 -0.21294 
pad -0.15994 0.076209 -0.44092 -0.26881 0.51659 0.045453 -0.16143 -0.21361 0.14681 0.12852 0.0084576 0.029583 0.17766 0.44118 0.30613 0.011617 -0.10128 0.060293 0.22446 0.046765 0.36399 -0.052552 0.0087957 -0.19981 0.012454 -0.18982 0.30916 0.24328 0.010013 0.36277 -0.054095 0.080358 0.035913 0.28133 -0.28889 0.17977 0.14029 -0.17341 0.064065 0.0068784 0.15212 0.0057425 0.24051 -0.074673 0.081497 -0.16205 -0.021179 0.13856 -0.042024 0.075127 -0.051815 0.048873 0.028523 -0.03555 0.14237 0.15235 0.064818 -0.017218 -0.05921 -0.15599 0.081274 0.069748 0.22845 0.08634 -0.027754 0.18118 -0.030767 -0.19331 0.043835 0.19293 -0.37798 0.27143 -0.2313 0.088138 -0.047624 -0.12168 -0.25493 0.23489 -0.051193 0.011402 -0.32788 0.012192 0.24432 -0.079014 0.047039 0.071949 0.23408 0.16777 -0.28065 0.18592 0.46706 -0.12693 -0.094574 -0.31639 -0.11714 -0.39339 0.10003 -0.52146 0.076633 -0.24771 
lg 0.092635 0.4109 -0.0063736 -0.3677 0.35655 0.087591 -0.25064 0.083644 -0.045008 0.27248 -0.0038648 0.12362 -0.053575 0.24564 0.096157 -0.28895 -0.10996 0.024219 0.076823 -0.076956 -0.064035 0.26493 0.19276 0.021746 -0.26653 -0.1787 -0.0028035 -0.29531 -0.07904 -0.15822 -0.1011 -0.12683 -0.016721 -0.19162 -0.21569 -0.01478 -0.10474 -0.16699 -0.19285 0.10416 -0.021652 0.036814 -0.10959 -0.038232 0.15558 -0.10638 0.010693 -0.030827 -0.20665 0.065404 -0.31313 -0.01773 -0.24988 0.14805 -0.22176 0.057353 -0.1656 0.12171 0.31158 0.035189 -0.061509 0.021744 0.29972 0.30773 0.053623 0.054283 -0.24435 -0.20334 -0.19497 0.019312 -0.054773 0.21453 0.16185 -0.16391 0.01541 -0.16389 0.16201 0.202 0.17981 0.055693 -0.060311 -0.069409 0.23302 0.062659 0.29282 0.039545 -0.089689 -0.045801 -0.21044 0.22259 0.17624 0.18833 0.20652 -0.095549 0.12199 -0.16497 -0.00096692 0.15412 -0.2817 -0.17297 
mount 0.17314 -0.1642 0.195 0.072024 -0.21754 -0.0065914 -0.056594 0.0411 -0.26549 -0.22749 0.10752 -0.087862 -0.19927 -0.18464 0.1217 0.005286 -0.03424 -0.070725 -0.0086643 0.15216 0.0061969 -0.14727 -0.083002 0.1742 -0.08326 0.19562 -0.12525 0.14008 0.054304 -0.27564 0.07222 0.10059 0.21279 0.15778 0.2197 0.038629 -0.091048 0.14835 0.040324 0.1221 -0.18605 -0.17252 -0.096525 -0.018537 0.092222 -0.047743 0.080065 0.040482 0.18289 -0.067942 0.23059 -0.20735 0.2044 -0.091164 0.020029 0.084367 -0.0238 -0.056828 -0.076148 -0.074024 0.097115 -0.16699 -0.24156 -0.1308 0.087091 -0.034049 0.1894 -0.12368 -0.15354 -0.12645 0.21411 -0.079787 0.10025 0.0018063 0.037318 0.086706 -0.26638 -0.21691 -0.007978 0.099735 0.13019 -0.11509 -0.20197 0.24904 0.045692 0.20053 -0.084949 -0.075168 0.095661 0.040836 -0.19885 -0.049463 -0.26907 0.25397 -0.00080304 0.23608 -0.18958 -0.16419 0.13092 0.05643 
air 0.14767 -0.26436 0.12258 -0.24137 -0.033091 -0.19172 -0.014439 -0.013595 -0.029008 0.15638 -0.14726 -0.086658 -0.24056 -0.084919 -0.2497 -0.10148 0.1132 -0.049172 -0.16696 0.037448 0.088977 -0.091144 -0.31538 0.077622 0.25371 -0.20795 0.051027 -0.25177 -0.059705 -0.061962 0.066562 -0.015561 -0.16374 -0.066569 -0.17643 -0.19506 -0.073449 0.1213 0.16634 0.29792 0.0062592 0.22928 0.0454 -0.021346 0.12464 0.10585 -0.040991 0.078581 -0.077919 0.033748 0.098053 -0.16189 -0.028802 -0.12937 -0.10355 0.20246 -0.16448 -0.053348 0.076244 0.038636 0.35637 0.38842 0.1939 0.212 0.078175 0.076188 -0.027584 -0.22233 -0.069187 -0.36791 0.18853 0.072433 0.081636 -0.17181 -0.11654 0.23142 0.31065 -0.22048 0.27345 -0.19014 0.03118 -0.271 -0.32045 -0.14899 0.21889 -0.20841 0.0026095 0.057138 -0.068473 0.077647 -0.16254 -0.039208 0.20637 -0.26149 0.12343 0.072353 -0.10142 0.21467 0.086274 0.218 
sound 0.083784 0.14514 -0.022941 -0.1635 0.072593 -0.069038 -0.12612 0.049054 0.040495 0.088126 0.0080652 0.059675 -0.03104 0.044323 -0.16565 -0.14528 0.036203 0.029302 -0.098004 -0.012119 -0.054204 0.16025 0.047735 0.056688 -0.022007 -0.19851 -0.066662 -0.262 -0.013841 -0.034098 -0.15667 -0.17197 -0.051778 -0.13887 -0.12206 -0.11751 -0.052225 -0.11971 -0.0069293 0.053337 0.0093603 0.13946 -0.028017 -0.012514 0.057631 0.093811 -0.0173 -0.11626 -0.16176 0.030212 -0.11992 0.037125 -0.20136 0.11443 -0.1716 -0.020621 -0.12606 0.107 0.1222 9.6567e-05 0.086609 0.09799 0.19922 0.19215 0.045555 -0.016413 -0.17799 -0.032506 -0.065669 -0.050088 -0.017567 0.14582 0.027246 -0.15329 0.037856 -0.046479 0.121 0.074276 0.064102 0.0058156 -0.05611 -0.008403 0.10514 -0.054868 0.14869 -0.068062 0.0029718 -0.084493 -0.0811 0.038219 0.082583 0.12869 0.18223 -0.12818 0.073766 -0.047299 -0.0058599 0.1738 -0.18762 -0.01346 
video 0.042623 -0.024311 0.14011 -0.051674 -0.081169 0.024388 0.080498 0.058927 -0.061306 -0.040667 0.08547 0.05823 -0.0072505 -0.11246 -0.019572 0.085804 -0.022961 0.034181 -0.013662 0.0065169 0.010625 0.051 0.065015 -0.014695 0.036602 0.051874 -0.12001 0.057923 0.07203 0.0024248 -0.11481 -0.043643 -0.025145 0.048546 0.11023 0.044668 0.020236 0.003656 -0.049587 0.022154 -0.020503 0.048822 0.038392 -0.071597 0.052622 -0.027213 0.056763 -0.090167 -0.020297 -0.065294 0.087058 0.0052105 -0.011577 0.016253 0.034812 -0.10072 -0.0060638 0.042549 0.069593 0.01651 -0.0027102 -0.0051437 -0.12449 -0.10325 -0.020409 -0.012334 -0.10294 0.049769 0.018342 0.050882 -0.05587 -0.036194 -0.051725 -0.001868 0.058757 -0.015935 -0.075911 -0.033451 -0.079389 -0.016105 0.0078108 0.019558 0.0034107 -0.01632 0.0074283 0.0089329 0.033326 -0.016506 0.027885 0.013021 -0.074364 -0.0010147 -0.08078 0.00084415 0.011727 0.0046379 -0.040904 -0.024425 0.032213 -0.10464 
movi -0.39708 0.11341 -0.043811 0.13384 -0.083904 0.11595 0.46983 0.0017383 0.27344 0.11994 -0.059437 -0.002324 0.42641 -0.067428 -0.18382 0.14894 -0.020891 0.25981 0.010792 -0.25311 -0.18747 0.10761 0.24716 -0.23974 0.36801 -0.04952 -0.053639 0.10519 0.032587 0.36381 -0.08589 -0.005576 -0.21649 -0.20103 -0.043992 0.10053 0.10247 -0.15319 -0.15881 -0.39252 0.35847 0.20462 0.12429 0.087381 -0.21065 -0.025157 -0.22875 -0.1798 -0.16899 -0.0052586 -0.10232 0.28071 -0.08887 0.091771 0.11489 -0.3342 0.11267 0.10434 0.071428 0.25339 -0.22995 0.047704 -0.097274 -0.14994 -0.20374 -0.061353 -0.13689 0.45404 0.37704 0.26067 -0.17565 -0.21426 -0.17866 0.13441 -0.086194 -0.0051769 0.37125 0.25703 -0.15153 -0.23251 -0.15726 0.2712 0.18427 -0.25405 -0.61624 -0.19688 0.00032293 -0.015132 -0.0069975 -0.15167 0.1018 0.13546 0.26355 -0.20095 0.022458 -0.058189 0.19956 0.37356 -0.1409 -0.012285 
blue -0.11823 0.10213 0.00075932 0.074269 -0.091048 0.072393 0.16507 0.037478 0.077078 0.021711 -0.009119 0.021451 0.13943 -0.013996 -0.062054 0.036442 -0.011301 0.093079 -0.026894 -0.12984 -0.098393 0.10229 0.086001 -0.064242 0.070115 0.038323 -0.083267 -0.0017058 0.02546 0.065187 -0.037887 -0.015943 -0.027814 -0.092505 0.030239 0.024155 0.024796 -0.069866 -0.079405 -0.15578 0.14703 0.03095 -0.0069157 0.064362 -0.086992 0.0053172 -0.065128 -0.1151 -0.048748 -0.028867 -0.021902 0.079704 -0.073724 0.037502 0.01823 -0.16468 0.03492 0.055222 0.0492 0.097312 -0.12984 -0.037408 -0.095489 -0.065695 -0.070437 -0.057898 -0.035767 0.17905 0.11124 0.086885 -0.053361 -0.080695 -0.045083 0.088204 0.025986 -0.033142 0.11787 0.080274 -0.054095 -0.052921 -0.054156 0.089646 0.075619 -0.032887 -0.17873 -0.028095 -0.020557 -0.044464 -0.0094386 -0.06243 0.0146 0.044358 0.086297 -0.019595 -0.014796 0.010925 0.042105 0.19164 -0.072365 0.0077794 
audio 0.07325 -0.052805 -0.014825 0.066778 0.015968 -0.040411 -0.059294 -0.033738 0.014405 -0.023827 -0.0076148 -0.078913 0.011297 -0.049848 -0.06334 0.0798 0.11799 -0.063625 -0.080081 0.01694 0.013533 -0.055708 -0.082428 -0.0064575 -0.041259 -0.0061034 0.052227 0.021607 0.0099258 0.030161 -0.015312 -0.028535 0.0018414 0.017056 0.063339 -0.080064 -0.020196 0.072775 0.050623 -0.039265 -0.052645 -0.037769 0.013798 -0.00086494 -0.016298 0.0045604 0.036178 0.056552 0.047036 -0.042467 -0.031875 0.039113 0.044979 -0.057636 0.011098 0.038322 0.017764 -0.020614 -0.10752 -0.031939 0.077901 0.062836 0.008186 0.055816 0.040807 0.075185 0.018779 -0.023697 -0.019784 0.056469 0.057915 0.051278 -0.037655 -0.09381 -0.065199 -0.076295 -0.016234 -0.059981 -0.021628 0.084328 0.072393 0.027923 -0.084258 -0.01147 0.034139 -0.02019 0.041198 0.045546 0.059134 0.024615 -0.022233 0.0078466 0.054403 -0.032196 0.037373 0.041527 0.020991 -0.045617 0.028322 0.065527 
asu -0.050563 -0.079474 -0.39302 -0.19496 0.66289 -0.10231 -0.053435 -0.40312 0.46559 0.65177 -0.24377 0.055266 0.15736 0.026601 -0.11312 -0.05794 0.14315 -0.14978 0.048389 0.010179 0.32371 -0.057965 -0.005307 -0.32858 0.30102 -0.46211 0.69316 -0.12814 -0.14371 0.57757 -0.016293 0.019691 -0.64966 -0.044541 -0.54131 -0.13604 0.0094532 0.082737 0.14518 -0.010956 -0.053704 0.27271 0.31857 -0.13735 -0.021855 0.0089989 -0.052376 0.3404 -0.21305 0.22504 -0.44226 0.30301 -0.083964 -0.19341 -0.047381 0.30989 0.033416 -0.15468 -0.21001 -0.075561 0.31046 0.6739 0.52491 0.44339 0.075278 0.42558 -0.31559 -0.19275 0.18379 0.11545 -0.11785 0.28691 -0.087088 -0.31857 -0.40869 -0.0598 0.40642 0.17305 0.14091 -0.17306 -0.10802 0.15572 0.013167 -0.51559 -0.019427 -0.63616 0.32207 0.30538 -0.072135 0.038315 0.092647 0.10978 0.57167 -0.55392 0.088679 -0.3763 0.24511 -0.085645 -0.027534 0.029896 
and -0.32894 0.20887 -0.030651 0.08823 -0.031362 0.12882 0.36263 0.043533 0.2354 0.13469 -0.066202 0.022109 0.39892 0.031325 -0.13319 0.078811 -0.029221 0.26188 0.0099446 -0.2747 -0.20395 0.13857 0.23703 -0.20832 0.27634 -0.072008 -0.096888 0.023949 0.020041 0.24694 -0.10954 -0.0542 -0.16077 -0.25289 -0.06469 0.06389 0.082456 -0.19723 -0.18948 -0.3349 0.34375 0.16583 0.035395 0.11419 -0.19396 -0.016043 -0.22366 -0.20791 -0.19118 -0.0092157 -0.12693 0.24222 -0.15418 0.14038 0.060422 -0.31313 0.072607 0.11875 0.12165 0.24164 -0.22765 0.012635 -0.033648 -0.059616 -0.17009 -0.093559 -0.1495 0.37644 0.29364 0.2307 -0.21098 -0.14972 -0.15148 0.13049 -0.028301 -0.049359 0.34695 0.25804 -0.10814 -0.17655 -0.14627 0.21034 0.21559 -0.21999 -0.47116 -0.15214 -0.026429 -0.079739 -0.063887 -0.10386 0.14467 0.16034 0.24032 -0.16393 0.040177 -0.078595 0.17652 0.36155 -0.19939 -0.03935 
columbusday -0.030706 0.11318 -0.18063 -0.04297 0.24779 -0.0054976 -0.013406 -0.10113 0.10672 0.16765 -0.038877 0.075008 0.12523 0.11208 -0.013901 -0.07749 0.0042232 -0.019259 0.057266 -0.042844 0.074043 0.063552 0.063861 -0.091996 0.002295 -0.17248 0.10057 -0.082785 -0.093003 0.17051 -0.07196 -0.048576 -0.1755 -0.076541 -0.20231 -0.019898 0.022041 -0.084534 -0.033907 0.010456 0.021887 0.11049 0.074354 0.0031337 -0.012691 0.036787 -0.004422 0.033456 -0.15391 0.11099 -0.19776 0.14478 -0.086277 0.035197 -0.029623 -0.019283 0.033117 -0.009188 0.036965 -0.062552 0.014423 0.17415 0.24622 0.19204 0.042539 0.089959 -0.1878 -0.013297 0.055534 0.086192 -0.16992 0.090012 -0.0047944 -0.066372 -0.065004 -0.055525 0.05903 0.12968 0.03551 -0.04805 -0.076688 0.05773 0.1284 -0.17871 0.043146 -0.16311 0.11254 0.035573 -0.05185 -0.053702 0.11984 0.074113 0.14351 -0.13843 0.053406 -0.20348 0.086879 -0.018092 -0.11409 -0.093454 
system 0.029992 0.0080871 0.010026 0.016819 -0.044647 -0.039346 -0.032233 0.039202 0.043147 -0.024819 -0.017844 0.062611 -0.0278 -0.013202 -0.054893 0.013863 0.016996 -0.026988 -0.026057 0.027863 -0.043992 -0.025336 0.011436 0.016721 0.029407 -0.013655 -0.051527 -0.070747 -0.0045465 -0.032454 -0.018436 -0.068104 -0.012859 -0.022813 -0.046838 -0.053849 -0.0034764 -0.054133 0.026767 0.018063 -0.041424 0.02113 -0.013658 -0.018772 -0.026613 0.077548 -0.04922 -0.044918 -0.039205 0.01784 0.030458 0.0034154 -0.030593 0.065759 -0.051723 0.0036542 -0.037643 0.011921 -0.015622 0.0035426 0.022919 -0.065996 0.022914 -0.00096703 0.0078541 -0.088657 0.022888 0.043017 -0.010858 -0.045459 -0.036346 -0.0053978 -0.00047526 0.027585 0.094783 0.048725 -0.021115 0.0042271 -0.052034 0.0044694 -0.02468 -0.018877 0.023367 -0.014954 -0.017623 -0.013332 0.013012 -0.048599 -0.022949 -0.065654 -0.029462 -0.02496 -0.017405 0.053335 0.00040562 -0.00058011 0.0073663 0.026307 -0.059226 0.0083571 
led 0.036877 0.36575 0.13158 -0.29871 0.21122 0.049999 -0.069093 0.23138 -0.062649 0.16639 -0.011789 -0.0087296 0.12081 0.075887 -0.12354 -0.17857 -0.047606 0.1936 -0.027212 -0.13406 -0.2806 0.21926 0.2254 -0.011194 -0.11835 -0.29208 -0.24527 -0.26977 -0.0093985 -0.15287 -0.27827 -0.18393 0.0095282 -0.35139 -0.16096 -0.029205 -0.1382 -0.25957 -0.27187 -0.025403 0.098919 0.1949 -0.14505 0.067596 0.14005 -0.071742 -0.094332 -0.16195 -0.27199 0.0091885 -0.2784 0.098647 -0.22758 0.26009 -0.20412 -0.19191 -0.20923 0.21564 0.39266 0.13253 -0.043129 0.029393 0.22112 0.28842 0.023819 -0.08656 -0.35636 0.022482 -0.12028 0.081057 -0.09927 0.14138 0.047653 -0.22246 0.059945 -0.16424 0.30124 0.20494 0.044983 0.001047 -0.038553 -0.075658 0.22219 0.010019 0.065255 0.037023 -0.13761 -0.16677 -0.12191 0.18001 0.17911 0.32106 0.28883 -0.2101 0.22253 -0.060366 0.013016 0.32499 -0.36202 -0.17961 
monitor 0.2516 -0.20953 0.1216 0.052183 -0.13328 -0.091817 -0.19811 0.006582 -0.2635 -0.21503 0.057417 -0.086805 -0.2525 -0.14246 0.068642 0.034595 0.077725 -0.15968 -0.060073 0.19075 0.052676 -0.18007 -0.19482 0.15238 -0.1611 0.099175 -0.03273 0.069056 0.057286 -0.24773 0.058945 0.037723 0.20154 0.16275 0.18977 -0.060114 -0.096456 0.18726 0.1121 0.16998 -0.24123 -0.18293 -0.079111 -0.045405 0.11911 -0.010207 0.10262 0.10596 0.19164 -0.077372 0.19933 -0.20217 0.17028 -0.08472 0.011568 0.18485 -0.032186 -0.058755 -0.12579 -0.13819 0.20055 -0.095093 -0.098427 0.0050752 0.1613 0.032787 0.15979 -0.21564 -0.21633 -0.13083 0.19596 0.050083 0.091739 -0.068949 0.019457 -0.005406 -0.30792 -0.24934 0.012103 0.1933 0.18381 -0.15705 -0.24926 0.21925 0.22752 0.21018 -0.009053 -0.015236 0.098576 0.092739 -0.14752 -0.074125 -0.23239 0.17684 0.024062 0.18481 -0.1709 -0.27435 0.14334 0.055542 
